/**
  ******************************************************************************
  * @file    weights/fc.cc
  * @author  Pierre-Emmanuel Novac <penovac@unice.fr>, LEAT, CNRS, Université Côte d'Azur, France
  * @version 1.0.0
  * @date    24 march 2020
  * @brief   Template generating plain C code for the implementation of Convolutional Neural Networks on MCU
  */

#define INPUT_SAMPLES 184
#define FC_UNITS 6


const int16_t dense_1_bias[FC_UNITS] = {85, -70, -201, 84, 4, 167}
;

const int16_t dense_1_kernel[FC_UNITS][INPUT_SAMPLES] = {{-340, -195, 226, -96, -47, -88, -133, -143, 105, 16, 77, -20, 234, 89, -12, -26, 137, 127, 84, 26, -179, 8, -18, -378, -351, -29, -21, -4, -74, -220, -155, -328, -220, -45, -13, 33, -115, -19, 130, -360, 152, -11, 122, 69, -31, -65, 8, -50, -236, -230, -105, -80, -54, -165, 4, 174, 230, -46, 15, 82, 22, -98, 42, -68, -85, -140, -49, 62, 83, -362, -404, 25, 54, 83, -67, -35, 23, -77, -55, 128, 56, -174, -79, -170, -65, 42, -97, -87, -168, -106, -173, 47, -412, -560, -162, -291, -282, 47, 20, 77, -45, -90, 76, -30, -6, 52, -519, -465, -125, 46, -16, -134, -37, -107, -172, -495, -262, -100, -158, 27, -53, -231, -69, 84, 125, -6, -29, 4, 78, 80, 149, 70, 163, 121, 40, -156, -39, -237, -266, -108, 45, -91, -158, 9, 185, 48, 96, 14, 222, 167, 73, 47, 154, 128, -124, 56, 22, 56, 32, 80, -20, -169, -285, -444, 125, 332, 228, 8, -101, 159, -22, -44, 217, -182, 55, -31, 120, -128, 3, 143, 73, -1, -98, 14}
, {-146, -116, 116, 89, 11, -37, 99, 154, 78, 51, 1, -31, -38, 62, 76, 105, 19, -28, -77, -40, -92, -140, -258, 100, 287, 185, -35, 94, 30, 13, -67, -110, -194, -31, -78, -33, 14, 274, -9, 65, -324, 205, 175, 101, 140, 282, -290, -365, -179, -72, -61, -10, -8, -53, -111, -152, -239, -130, -104, 37, 14, -10, -83, 2, -31, -92, -118, -131, -65, -241, -116, -32, -4, -24, 38, 40, 60, 9, 248, -6, 72, 101, 93, 8, 88, -33, -178, -78, 2, -5, -51, 65, -244, -499, -248, -52, 162, 57, 21, -14, -123, -69, -121, -293, -36, 115, 149, -578, -380, 30, -30, -96, 148, 9, -40, 92, 217, 149, 244, 121, 51, 130, -106, -108, -34, 82, -36, 42, -77, -3, -253, -37, -101, 13, -87, -32, -58, 6, 126, 89, -130, 200, 128, 22, 18, -62, 68, -41, 25, -39, -112, -14, -187, -135, -129, 66, -33, 108, 16, -12, 125, -78, 8, 94, 248, 13, 27, 19, 18, 22, 131, 109, 37, 123, -127, -4, -96, -5, 137, -126, -130, -29, -155, 90}
, {371, 229, -108, 83, 251, 124, 99, -17, -34, -50, 20, 63, 79, 72, 11, -14, -91, 24, 93, -4, 76, 12, -12, 34, -275, -5, 146, 7, 106, 179, 114, 382, 369, 103, -50, 22, -74, -222, -233, -251, 188, -296, -161, -175, -26, -305, -295, -193, 176, 52, 100, 108, 55, 23, 100, 6, -151, 40, 101, -199, -65, -34, -76, -75, -147, -89, -364, -455, -492, -475, -368, -235, -89, 86, 90, 175, 119, 84, -110, -90, -149, -163, -274, -92, -120, -84, -14, -191, -311, -298, -268, -498, 45, -119, -359, -75, 140, 24, -19, -166, -45, -150, 41, -19, -41, -21, -145, -433, -157, 54, -324, -294, -153, -43, -214, 234, 154, 76, -16, -28, 27, 103, -19, -9, -130, -34, 20, -51, 77, 9, -3, 64, -116, -65, -80, -70, 135, 55, 250, 198, 125, 0, 168, -48, -183, -4, -83, -19, 49, -7, 142, 78, 95, 11, 106, 158, 30, 69, 38, -4, -72, 225, 316, 113, -213, -265, -188, -152, 21, -78, 5, 35, 2, -66, 0, -2, -71, 138, -117, -17, -3, -76, 54, 52}
, {-492, -301, -372, -236, -397, -21, -222, -162, -5, 170, -201, -228, -29, -81, -19, -36, 81, 69, -24, 19, 170, 252, 449, -68, 90, -348, -160, 343, -9, -51, -194, 204, -193, 161, 27, -25, -109, -97, -312, -387, -340, 26, -91, -89, 13, 77, 278, 125, -14, -33, -86, -50, -288, -631, -319, 40, 348, 480, 276, -257, 15, -27, 79, 39, 112, -118, -233, -323, -267, -48, 18, -130, -186, -189, -129, -176, -236, -59, -143, 52, 214, 148, 183, 58, 28, 26, 51, 43, -43, -83, -420, 67, -214, -235, -145, 121, -199, -10, -350, -127, -1, 235, 291, 333, 223, -91, 0, 140, 68, 32, -454, -595, 119, 179, -264, -690, -663, -457, -636, -168, -257, -253, -358, -366, -52, -42, 30, -257, -307, -530, -155, -1, 16, -42, 70, -111, -165, -52, -487, -459, -202, 81, -15, 18, 92, -93, 60, -174, -75, -374, -137, -113, -109, -10, -34, 53, 15, 45, -58, 97, -35, -445, -112, -26, -145, 44, 79, 19, -67, 83, -47, -366, -331, -435, -183, 145, -81, -272, -97, -112, -19, -52, 72, 131}
, {-295, -398, -250, -178, -129, -157, -80, 105, -46, -99, 31, -60, -102, -72, -113, 34, 36, 50, -1, 11, -109, -170, -678, -46, 28, 65, 47, -336, -139, -40, -89, -200, -121, -33, 48, 241, -193, -75, -62, -79, -205, -130, 96, 153, -70, -133, 115, 140, 60, 24, 52, 24, 33, 450, 84, 82, -484, -611, -454, -66, -63, 88, 52, 123, 112, 1, -144, -69, -265, 502, 338, 211, 192, 129, 9, -181, -159, -363, -151, -44, -73, -208, 80, 70, -24, 42, 100, 48, 62, -79, 143, -370, 179, 537, 272, -159, 13, -240, 39, 28, 142, -100, -264, -421, -239, 11, -5, 106, 96, 15, -225, -76, 9, 28, -739, -585, -534, -563, -424, -375, -457, -231, -181, -14, -61, 139, -236, -204, -360, -67, -76, -25, -94, 101, 18, -75, -45, -105, -497, -502, -486, -573, -144, -110, -246, 21, -81, 120, 44, 67, -105, -255, -254, -46, -11, -153, -86, 55, 108, 111, -88, -279, -381, -577, -379, 61, -247, -453, -250, -237, -145, 122, 91, 172, -239, 67, 191, -87, -156, 35, -16, -26, -30, 114}
, {-90, 5, 130, 122, 198, 128, 63, 89, -61, -73, 9, 100, 14, -24, -267, -306, -379, -335, 86, 189, 127, 212, 385, 210, -87, -292, -115, 67, 155, 109, -150, 80, 145, 4, -67, 52, -133, 86, 379, 333, 218, 89, 39, -649, -191, -19, 4, 3, -49, 54, -27, 90, 150, 48, 194, -51, -140, -84, 28, 116, 64, -96, -145, -205, -158, 112, 126, 338, 203, 277, 248, 61, -100, 59, 93, 136, 28, 5, -48, -91, -64, -186, -364, -440, -297, -47, 131, 1, 21, 542, 565, 400, -67, 177, 54, -20, 200, -130, 59, -11, -34, -21, -3, -53, -19, 63, -47, -466, -470, -327, 536, 785, 143, -184, 875, -427, -348, -95, -134, -127, -29, -213, 40, -15, 128, 23, 13, 97, -180, -26, -91, -332, -156, -203, -55, 40, 116, 212, -394, -84, -17, 38, 17, -74, -71, -39, 111, -52, -66, 26, -184, 28, 110, 87, -8, -54, -108, -79, -94, -123, -115, -261, -101, -69, -72, -210, -137, -103, -125, 2, 142, -58, 61, -52, -73, -187, -115, -151, -5, -36, -42, -245, -238, -157}
}
;

#undef INPUT_SAMPLES
#undef FC_UNITS