/**
  ******************************************************************************
  * @file    weights/fc.cc
  * @author  Pierre-Emmanuel Novac <penovac@unice.fr>, LEAT, CNRS, Université Côte d'Azur, France
  * @version 1.0.0
  * @date    24 march 2020
  * @brief   Template generating plain C code for the implementation of Convolutional Neural Networks on MCU
  */

#define INPUT_SAMPLES 4696
#define FC_UNITS 3


const int16_t dense_27_bias[FC_UNITS] = {-317, 312, -151}
;

const int16_t dense_27_kernel[FC_UNITS][INPUT_SAMPLES] = {{-13, -29, -43, -44, -32, -25, -15, -22, 15, 24, -29, -36, 39, -31, 48, -44, 25, -45, -37, -13, 32, -35, 37, 13, -12, -22, -38, -33, -30, -23, -41, -27, -14, 39, 26, 34, -46, -34, -15, -22, -32, -43, -41, -27, -42, -48, -35, -44, -13, -25, -20, -47, -48, -43, -41, -29, -21, -45, -47, -46, -45, -20, -43, -15, -25, -34, -31, -43, -46, -22, -18, -44, -41, -15, -15, -29, -28, -27, -23, -40, -19, -25, -24, -13, -41, -35, -42, -23, -20, -40, -20, -29, -27, -36, -21, -16, -36, -12, -35, -40, -43, -24, -43, -27, -36, -21, -26, -44, -12, -33, -48, -18, -13, -28, -35, -43, -20, -24, -41, -22, -48, -37, -21, -24, -40, -31, -39, -24, -15, -34, -13, -45, -17, -14, -29, -43, -44, -40, -37, -20, -36, -16, -25, -23, -42, -18, -45, -34, -37, -48, -30, -30, -21, -25, -46, -26, -14, -44, -30, -33, -17, -21, -24, -23, -37, -39, -39, -28, -18, -47, -32, -28, -37, -46, -21, -47, -20, -47, -26, -19, -38, -38, -17, -24, -14, -41, -34, -15, -26, -36, -29, -18, -36, -17, -36, -34, -14, -48, -43, -38, -12, -39, -27, -16, -25, -31, -28, -20, -21, -19, -26, -20, -46, -34, -23, -40, -41, -33, -24, -15, -36, -16, -13, -37, -32, -38, -41, -13, -12, -19, -30, -47, 12, -16, -35, -26, -23, -25, -30, -25, -41, -37, -40, -26, -34, -34, 30, -34, -37, -40, -21, -45, 42, -22, -39, -12, -40, -16, -17, -42, -17, -45, -21, -48, 30, -17, -23, 33, 29, 36, 15, 20, -47, -42, 20, -31, -32, 44, 38, 48, 31, 35, 15, 45, 17, 39, 14, 13, 44, 24, 19, -15, 31, -22, -18, -35, -16, -33, -48, -20, -47, -22, -32, -16, -38, -21, -15, -23, -30, -19, 29, -28, -25, -46, 47, -38, -12, -44, -48, -15, -42, 38, -34, -40, -28, 20, 34, -29, 28, 14, -36, -45, -21, -13, -42, -35, 39, 35, 22, 43, 24, -37, 16, -14, 19, -46, 19, -40, -38, 44, 14, -32, -38, -26, -47, -13, -13, -19, -42, 16, -45, -30, -34, -24, -23, -27, -26, -38, -39, -22, -16, -14, -25, -41, -44, -37, -22, -15, -42, -39, -25, -22, -35, -40, -28, -42, -22, -37, -17, -37, -41, 12, -38, -35, -15, -27, -37, -31, -46, -18, -14, -21, -34, -26, -27, -40, -48, -30, -41, -46, -14, -23, -37, -16, -15, -43, -37, -27, -31, -42, -28, -36, -45, -34, -26, -48, -30, -22, -38, -47, -13, -33, -20, -22, -28, -18, -15, -35, -29, -19, -27, -40, -45, -14, -36, -32, -12, -26, -48, -25, -15, -21, -13, -37, -28, -17, -46, -12, -32, -43, -26, -36, -36, -27, -13, -20, -47, -33, -26, -38, -32, -34, -14, -38, -30, -35, -38, -27, -32, -32, -33, -30, -38, -39, -32, -20, -41, -42, -27, -33, -36, -33, -25, -15, -19, -14, -28, -32, -18, -25, -30, -16, -43, -14, -37, -33, -42, -14, -30, -42, -40, -48, -17, -15, -22, -47, -28, -32, -40, -28, -35, -21, -33, -46, -12, -27, -39, -43, -13, -42, -45, -30, -28, -29, -43, -13, -14, -44, -17, -37, -20, -24, -34, -22, -39, -22, -35, -39, -47, -28, -31, -14, -45, -19, -39, -44, -43, -13, -45, -40, -45, -43, -29, -25, -18, -46, -44, -29, -29, -44, -32, -27, -42, -13, -32, -18, -28, -25, -20, -15, -37, -16, 15, -29, -24, -42, -26, -43, -45, -58, 22, 44, 20, -34, -38, 26, -37, -18, -36, 25, 34, 26, 22, -35, -41, -32, -33, 26, 18, 30, -13, 29, 43, -38, -43, -31, 33, 13, -23, -38, 38, 27, 15, -36, -49, -25, -18, 37, 46, 45, -53, -55, -49, -45, 44, 33, -49, -44, -33, 36, 17, 38, -26, -7, 22, 34, -54, -53, -29, -59, 25, 43, 23, -25, -36, -35, -31, -19, -38, -40, -42, 46, 34, 43, 11, 11, 38, -52, -40, 15, 33, -22, -23, 29, 46, 19, -55, -33, 32, 32, -21, -40, -42, -32, 33, 26, -17, 30, 47, -39, -36, -31, -22, -60, -31, -29, 36, 0, -59, -48, 11, 46, 36, -32, 21, 35, -46, 37, 32, 9, -49, 19, 44, 24, -41, -31, 15, 14, -17, -24, -34, -44, -28, -33, -23, -61, -16, -17, -24, 13, 4, -30, -20, -46, -30, -27, -27, 13, 46, 42, -30, -29, -32, -32, 13, 43, -42, -50, -41, 22, 37, -30, -52, -49, -15, -38, 17, -23, 39, 25, 41, -49, 7, -42, -27, 15, 33, 13, -51, 41, 16, -31, -49, -41, -40, -49, -32, -53, 34, -25, 22, -46, 19, -44, -35, -36, -32, -32, -27, 46, 37, 37, 11, -15, -14, -26, -16, 39, 41, 37, 43, 12, 20, 40, 33, 33, -41, -41, -39, -46, -26, 33, -41, -19, -31, -24, -38, -7, 34, -40, -45, -43, -43, -31, -30, -45, -12, 22, -34, -32, -43, -15, -39, -21, -40, -36, -41, -26, 27, 16, -28, -30, -42, 40, -21, -31, -35, -37, -13, -47, -28, -19, 24, 16, 31, 12, 22, 25, 44, 28, 39, 46, 21, 27, 31, 41, 45, 15, 14, 42, 15, 12, 16, 6, 23, 42, 30, 26, -31, 31, 41, 8, -55, 4, 21, 29, -21, -37, 37, -29, -32, 24, -28, -42, -48, -50, -26, -53, -19, 11, 48, 23, 31, -22, -5, -31, -22, -40, -36, -23, -33, -2, -45, -29, -45, -56, -39, -47, -47, -37, -30, -51, -41, -18, -24, -47, -18, -44, -25, -19, 26, -42, -37, -41, -47, -53, -35, 7, -45, -55, -46, -42, -28, -29, -46, -22, -16, -32, -20, 37, -17, -13, -37, -24, -16, 26, -45, -16, -14, 21, -48, 47, -29, -48, -17, -34, -33, -32, -26, -15, 25, -9, -37, -43, -30, -45, -19, -39, -20, -41, -42, -26, -42, -25, -25, -24, 22, 31, -13, -39, -48, 22, 25, -52, -28, 42, 15, -40, 33, -26, -25, -31, -38, -23, -14, -15, -19, 40, -13, -16, -42, -41, -15, -21, -24, -40, 15, -18, -42, -45, -28, -24, -37, -34, -28, 13, -33, -23, -31, -20, -23, -29, 24, -38, -42, -36, -3, 3, 20, 13, -40, -21, -17, 33, 24, -23, -52, -8, -36, -48, -41, -32, -29, -23, -42, -32, -25, -32, 36, -14, 47, -15, -44, -6, -26, 42, -28, -15, -17, -35, 16, -19, 43, -23, -36, -25, -33, 34, -23, -36, 19, 18, 13, -14, 43, 42, 27, 32, -25, -42, 41, -34, -29, 15, 32, 12, -31, -31, 38, 35, 31, 44, 14, -18, 26, 39, 12, 21, 27, -17, 12, 14, 38, -37, -38, -13, -44, 20, -39, 40, 46, -16, 34, 15, 23, -24, -24, 22, -48, 15, -19, 12, -37, -35, -29, -58, 37, 20, -47, 40, 18, 20, -24, -23, -21, -27, -42, 18, 37, -29, -34, 19, -18, -34, 48, 25, 38, 40, -12, 17, 41, 22, -18, -42, -10, 28, -19, -48, -41, 14, 15, 20, 37, -15, 18, 37, 35, -1, 10, -15, 6, 20, 4, 3, 47, -3, 6, -5, -16, -13, -3, -16, -12, 15, 0, -9, -11, 12, 0, 0, 0, 5, 4, -12, 7, 0, 34, -34, -12, 14, 11, -14, -29, 0, 15, -27, 15, 12, 3, 27, -1, -6, 9, 24, 15, -6, 16, -12, 0, 8, 43, 7, 6, -2, -1, -10, 5, 2, 7, -11, -5, 5, 17, 8, 21, 3, 4, 18, 10, 2, 20, 9, 26, 11, 4, 51, 30, -3, 23, -3, 25, 22, 12, 45, 14, 29, 56, 25, 26, 22, -5, 20, -5, 35, 17, 0, 22, 15, 3, 7, 20, 13, 2, 12, 0, 28, 10, 28, 16, 23, 8, 16, 19, 9, 3, 24, 25, 5, -2, 21, 20, 13, 18, 19, 17, 23, 20, 22, 4, 28, 42, 12, 18, 15, 16, 7, 6, -1, 23, 9, 33, 18, 12, 18, -7, 3, -5, 32, -5, 26, 0, 15, 1, -3, 13, 14, -2, 19, 7, -3, 21, 35, 20, -4, 47, 50, 8, 13, 12, 14, 27, -2, 17, 15, 3, 64, 42, -9, -10, -5, 2, 50, 51, 13, 14, 0, 45, 31, -4, 34, 33, 27, 2, 62, 37, 21, 10, 32, -3, 57, -5, 18, 24, 3, 55, 25, 10, -11, 19, 29, 25, 30, 13, 52, 58, -3, 26, 14, -4, 47, 27, 40, 59, 30, -2, 13, 11, 6, 26, 41, 32, -1, 7, 21, 0, -5, 21, 8, 1, 47, 31, -4, 4, 16, 30, 40, 28, 19, -5, 21, 25, 42, 18, 22, 32, 36, 63, 19, 32, 59, 55, 13, 19, 2, 13, 9, 25, 16, 10, 3, 8, 4, 43, 5, 18, 2, 50, 14, 0, 7, 23, 1, -4, -6, 46, 45, 32, 13, 1, 6, 26, 45, 23, -2, -1, 21, 8, 11, 20, 37, 29, 45, 47, -3, 25, 22, 46, 32, -2, -12, -1, -1, 10, 27, 42, 0, 57, 5, 16, 1, 7, 30, 3, 23, 5, 8, 17, 36, 64, 18, 0, 42, 14, 32, 8, 23, 39, 1, 62, 27, 6, 22, 7, 23, 28, 13, 22, 8, 10, 15, 10, 12, 27, 7, 11, 23, 6, 11, 16, 23, 25, 15, 48, 47, -3, 16, 1, 2, 11, 23, 19, 23, 3, 21, -5, 0, 25, 23, -5, 2, 9, 23, 3, 12, 0, -7, 16, 3, 13, 26, 4, 20, -4, 2, 11, 8, 26, 3, 9, 18, 12, 3, 2, 5, 15, 16, 15, 0, 7, 14, 2, 9, -15, -11, -5, 0, 2, 3, 5, -25, -17, -6, 4, 14, -5, 24, 2, 22, -15, -21, -11, 18, 22, -13, -7, 13, 4, 17, 6, 9, -2, 3, 8, -13, 7, -6, 4, 21, 14, 1, -7, 8, 16, -18, 8, -14, 1, -19, -10, 20, 31, 17, -2, -12, -5, 0, 3, -11, -3, -4, 9, 10, -1, -20, -14, -17, -28, -21, -10, -5, 17, -2, -15, 25, -1, -20, -7, 6, -12, -4, 28, -8, 0, -9, 21, 11, 67, 11, 10, 19, 2, 5, 6, -8, 10, -12, -4, -15, -17, -12, 4, -20, -8, -3, 27, 1, -19, -9, -15, 5, 10, 4, 6, -23, -10, -21, -16, -7, -25, 4, 10, 18, -6, -6, 14, 10, -10, -18, -24, -8, -14, -10, 0, -22, -13, -10, -16, -3, -10, -16, 13, 11, 14, 17, -2, 14, -20, -10, -28, -8, -4, 4, 17, -9, -35, 0, 9, -16, -7, -23, -17, 9, -4, -16, -2, 9, 9, 0, 21, 14, -13, 23, 38, 12, 34, 5, 21, 27, 28, 22, 7, 40, 5, 5, 43, 37, 36, 21, 36, 27, 35, 28, 31, 6, 25, 36, 16, 16, 35, 33, 11, 24, 20, 38, 37, 11, 6, 32, 34, 19, 15, 10, 20, 22, 24, 22, 18, 34, 16, 22, 17, 36, 13, 35, 27, 16, 0, 15, 21, 19, 23, 27, 6, 8, 32, 16, 26, 3, 8, 30, 9, 0, 8, 13, 2, 17, 15, 32, 36, 21, 14, 16, 2, 12, 16, 26, 11, 22, 6, 10, 35, 12, 16, 22, 31, 22, 19, 30, -4, 11, 17, -1, 25, 0, 30, 0, 23, 14, 13, -4, 19, 12, 18, 11, 19, 7, 29, 26, 20, 14, 34, 34, 29, 14, 17, 24, 2, 26, 31, 27, 32, 9, 2, 14, 29, 2, 1, 36, 23, 3, 31, 31, 26, 32, 31, 29, 33, 14, 34, 18, 33, 7, 30, 25, 7, 25, 18, 17, 9, 4, 7, 17, 36, 27, 33, 36, 5, 20, 11, 11, 8, 10, 37, 21, 7, 11, 18, 26, 19, 6, 22, 18, 36, 17, 22, 2, 12, 35, 14, 8, 11, 17, 4, 24, 19, 2, 3, 5, 14, 22, 3, 27, 29, 20, 3, 18, 3, 15, 9, 27, 29, 17, 24, 6, 11, 16, 20, 22, 32, 36, 18, 31, 21, 27, 18, 6, 24, 17, 31, 9, 38, 25, 26, 26, 34, 10, 10, 19, 24, 5, 30, 16, 9, 19, 8, 26, 15, 23, 20, 31, 18, 20, 27, 24, 28, 12, 23, 20, 31, 30, 34, 32, 22, 20, 19, 12, 36, 16, 24, 28, 34, 25, 30, 40, 21, 18, 22, 25, 50, 45, 40, 23, 48, 49, 20, 17, 35, 50, 50, 50, 45, 21, 23, 21, 12, 28, 30, 16, 29, 38, 8, 32, 10, 36, 6, 8, 9, 34, 20, 5, 8, 24, 21, 32, 17, 15, 38, 16, 12, 13, 13, 37, 35, 14, 39, 4, 39, 27, 29, 31, 16, 50, 21, 6, 40, 21, 10, 10, 51, 28, 18, 32, 31, 38, 50, 50, 17, 47, 39, 31, 27, 13, 33, 26, 37, 29, 28, 26, 33, 43, 42, 31, 16, 30, 24, 24, 23, 2, 19, 34, 34, 38, 20, 5, 2, 18, 8, 6, 23, 28, 36, 10, 19, 28, 9, 5, 11, 15, 7, 30, 36, 35, 49, 26, 10, 35, 22, 5, 23, 26, 6, 15, 32, 6, 3, 20, 18, 14, 22, 5, 24, 14, 4, 24, 34, 16, 12, 9, 8, 9, 7, 11, 18, 10, 35, 7, 12, 38, 11, 31, 6, 20, 29, 28, 12, 24, 3, 14, 10, 32, 15, 23, 33, 32, 15, 30, 19, 23, 25, 3, 3, 13, 6, 31, 35, 20, 23, 9, 33, 13, -5, 14, 19, 7, 30, 2, 1, 22, 4, 0, 17, -1, -1, 5, 24, 28, 32, 22, 35, 10, 6, 8, 11, 27, 8, -1, 26, 13, 34, 13, 18, 7, 15, 22, 29, -5, 0, -6, 27, 26, 24, 3, 18, 0, 28, 20, 5, 7, 34, 36, 31, 35, 13, 29, 28, 36, 8, 32, 34, 27, 11, 20, 29, 32, 12, 29, 26, 3, 37, 8, 14, 14, 19, 18, 24, 23, 21, 4, 3, 24, 35, 9, 18, 15, 21, 36, 29, 20, 11, 11, 17, 31, 37, 39, 33, 33, 26, 32, 27, 22, 27, 26, 29, 28, 19, 20, 26, 29, 3, 24, 5, 20, 11, 36, 12, 12, 35, 26, 29, 26, 6, 31, 35, 22, 10, 24, 5, 34, 32, 34, 32, 12, 16, 21, 26, 46, 15, 6, -15, 22, -46, -45, 41, 43, 11, 1, 10, 26, -41, 14, -2, 15, 41, 31, 47, -15, -19, 13, 46, 26, -15, 1, -36, 16, -24, -36, -34, -17, -29, 13, 33, 24, -14, 37, 42, 31, -4, 26, 23, 27, 37, 20, 37, 38, -37, -11, 36, -15, -23, -16, -16, 13, 38, -42, -29, 44, -17, 30, 41, 12, 30, -39, 41, 46, -29, -37, -42, -40, 48, 44, 4, -35, -46, -39, -17, -17, 38, 41, 46, 20, 23, -23, 45, 32, -44, 23, 34, 39, -8, 17, -11, 22, 24, -36, -29, -20, -17, -22, -46, 38, 31, -12, -40, -33, -22, -43, -45, -44, -32, 4, -37, -41, -43, -24, -15, -23, -21, -29, 0, -17, 45, -45, -18, 30, -34, -19, -13, -45, 19, 43, 42, 25, 31, -12, 7, 0, -19, 38, -17, 17, 13, -12, -26, -24, -10, -47, -1, -13, 17, -20, -15, -32, -27, -20, -21, -26, -45, -16, -43, -16, 9, 17, -3, -38, -40, -45, 19, -34, -21, -42, -30, -13, 14, -18, 13, -39, -16, -20, -42, -31, -22, -18, -47, -16, -15, 36, -46, -14, -32, -25, -19, -32, -12, -30, 35, -35, -12, 48, 12, -19, -33, -45, -16, 2, -5, -43, 47, -29, -17, 12, 38, 30, -33, -30, -22, -25, -32, 48, 46, 22, 47, -19, -37, -24, -27, -34, -19, 44, 37, -16, 18, -36, -32, -28, -33, -14, 46, 17, 14, 39, 40, -15, -34, -3, 21, -20, -33, 28, 33, 34, 21, -29, 41, 41, 46, 37, 18, -1, 15, -29, -15, -23, -32, -34, 10, 14, 3, -38, 25, 32, 16, 42, -17, 6, 20, 37, 16, 28, -27, -14, 24, 18, -42, 0, 28, 26, 45, 33, 45, -3, 45, -35, 36, -39, 14, -24, -37, -14, 45, 35, -7, -38, 20, 43, 15, 26, 6, -9, 18, 21, 35, -28, -35, 24, 24, 44, -46, 26, 44, 19, -31, 30, -13, -28, 26, 36, 12, 47, 31, 48, 40, 45, -13, 48, 24, -7, -42, 22, -12, -18, 17, 32, 37, -11, 48, 30, 30, 16, 28, 34, -12, -26, 19, -8, 18, -33, 14, -36, -37, 47, 38, 16, -21, 29, 41, -22, -38, 17, -32, 3, -20, -11, -19, -30, 22, 41, 17, 9, 16, 6, -6, 14, 18, 43, 46, 19, 25, 27, -4, 0, 29, 12, 31, 5, 17, 21, 41, 19, 32, 33, 42, 16, -4, -12, 12, 29, 46, 11, 32, 35, -11, -41, 33, -34, 17, 29, 27, -47, -5, 16, -39, 27, 28, -39, -41, 29, 39, -34, -48, 23, 30, 43, 43, 39, -21, -47, -33, -17, 16, -35, 8, -25, 23, 32, 27, 30, 12, 27, 22, -38, -10, -16, -13, -13, 0, -44, 6, 0, 34, 42, 32, -15, -1, 21, -48, 37, -37, -31, -25, -24, -41, -31, 12, 16, -28, -16, 13, -12, 14, 11, 14, -32, 31, 16, -6, -40, -23, -16, -11, -33, 15, 35, -16, 40, 42, -17, -18, 17, -26, 19, 11, 39, -26, 48, -39, -23, -29, 30, 47, 21, 15, 22, 13, 12, 34, -11, 25, 30, 15, 25, -32, -39, -26, 3, 43, 12, 8, -37, -30, -13, -34, -31, -34, -12, 30, 40, 13, 39, 30, 7, 14, 12, -33, 24, -18, 20, 1, 13, 23, -31, -40, 38, 36, -10, 24, -36, -24, 38, -15, -18, -44, -25, -31, -28, -21, -47, -15, 4, -17, -31, -30, -47, -36, -8, -27, 14, 27, 4, 8, -9, 24, -7, -3, 17, 18, 1, -10, 3, -9, -4, 21, -4, 5, 29, 28, 12, 5, 0, 10, 20, 0, 32, 2, -8, 7, -8, 5, -14, -11, 10, 3, -11, -5, 11, 24, -10, -10, -10, 15, 0, -19, 8, -15, -1, 4, -14, 11, -20, -19, -5, -6, 3, -15, 0, -3, 0, -25, -1, 7, 0, 7, -14, -3, -15, -12, -18, 5, 8, 9, -2, 2, -14, -27, -13, -12, -25, -21, -16, -19, -30, -25, -8, -9, 5, 9, 0, 4, -19, -25, 12, 2, -26, -13, -22, 4, -9, -28, -7, -17, -17, -12, -13, -7, -7, -7, -11, 6, -10, -10, -18, -10, 11, -16, -14, -20, -13, -18, 1, -4, -10, -6, -4, -2, -23, -31, 10, -11, -3, -13, -4, 13, 2, 1, -13, -30, 1, -2, 6, 3, -9, -5, -24, 0, 10, 1, -25, -14, -30, -17, -18, -10, -10, -26, 8, 1, -34, -4, 0, -24, -9, 0, 1, 1, -10, -16, -30, -15, -11, 0, -17, 11, -1, -8, -28, -12, -20, -14, -23, -30, -8, 3, 6, -15, -8, -32, -13, -26, -4, -12, 8, 9, -12, -7, -34, -20, -6, -13, -20, -6, -33, -33, -34, -35, -20, 8, -31, -13, -33, -15, -17, -36, -18, -31, -4, -21, -8, -14, -1, -25, -15, -29, 5, 6, -29, -4, -8, -16, -20, -23, -27, -17, -17, 1, -26, -1, -5, -16, -12, 3, -23, -14, -21, -10, -11, -10, -5, -26, -22, 7, -21, 0, -23, -15, -34, -25, -24, -3, -32, -20, -4, -19, -34, -28, -4, -6, -19, 3, -14, -35, -14, -4, -20, 3, -14, -22, -3, -23, -28, -2, -13, -24, -1, -29, -24, -28, -8, -3, -24, 0, -31, -11, 0, -16, -17, -30, 0, -19, -30, -31, -22, -30, -15, -26, -33, 5, -11, 2, -24, 0, -28, -22, -34, -21, -24, -21, -20, -24, -12, 14, -15, -23, -12, -1, -5, -7, -13, -2, -20, 3, -31, -32, -27, -29, -4, -9, -15, -6, -4, 0, -15, -19, -6, -12, -23, -10, 0, -6, 3, 11, 2, -2, 0, -32, -33, -23, 2, -16, -29, 0, -20, -15, -1, -19, 11, -4, -31, 2, -5, -21, 6, -18, -20, -3, -14, -3, 3, -20, -10, -20, -20, -19, 2, -28, -1, -21, -30, -7, -2, 16, 6, 10, 2, -23, 14, 16, -3, -7, -5, -1, -28, 6, -1, -13, -24, -3, 3, -11, -29, 13, -6, -28, 0, 1, -10, -20, -18, -28, -3, -1, -28, -3, -30, -20, -2, 0, 1, -19, -18, -14, -23, 11, -8, 2, -30, -31, -28, -1, -13, -16, -6, -13, -17, -18, -13, -28, -30, -30, -6, 13, -9, -5, -17, -3, -22, -8, -2, -19, -3, -17, -18, -22, -11, 7, -19, -12, 4, -16, -7, 2, 12, 5, -32, -20, -20, 10, -25, 1, 13, -5, -16, -4, 11, 7, 6, -9, 0, -11, -25, -28, 0, 2, 2, -10, -24, -17, 2, -11, 4, 3, -23, 4, 5, 8, -14, -16, 2, 1, -22, -17, -7, -26, -25, 3, 0, -7, -21, 3, -30, -23, -26, 1, -18, -4, -17, -23, -9, -25, -25, 1, -10, -26, -9, -1, -6, -10, -16, -6, 13, -3, 0, 3, -13, -5, -15, -2, -14, 10, -5, 8, 5, 33, 29, -3, -10, -15, -12, -9, 7, -6, 2, 8, 22, 12, 15, 1, 16, 14, -2, 12, -12, -7, 2, 11, 1, 18, 9, 33, 24, 42, 45, 21, 22, 10, 35, 29, 36, 31, 11, 25, 43, 21, 36, 5, 15, 32, 22, 18, 28, 8, 21, 32, 35, 50, 49, 48, 31, 14, 45, 19, 28, 11, 42, 48, 17, 17, 30, 16, 11, 15, 40, 8, 17, 38, 26, 12, 19, 31, 11, 17, 3, 29, 31, 36, 24, 19, 4, 12, 22, 16, 26, 32, 13, 36, 34, 5, 34, 24, 19, 30, 24, 24, 15, 37, 36, 25, 29, 18, 31, 16, 5, 7, 5, 4, 19, 34, 24, 31, 30, 17, 19, 30, 13, 24, 4, 10, 9, 19, 17, 24, 29, 21, 29, 11, 29, 29, 28, 2, 37, 9, 13, 3, 7, 27, 32, 21, 29, 33, 33, 34, 31, 35, 11, 32, 20, 8, 29, 4, 30, 18, 11, 13, 18, 23, 18, 11, 11, 12, 27, 26, 23, 29, 5, 5, 30, 27, 27, 11, 16, 10, 19, 15, 18, 4, 6, 7, 36, 28, 24, 21, 39, 24, 6, 19, 38, 26, 26, 33, 36, 20, 32, 4, 38, 14, 17, 29, 36, 26, 13, 40, 33, 4, 20, 31, 10, 23, 22, 24, 37, 29, 18, 9, 30, 5, 15, 36, 10, 5, 13, 18, 4, 29, 17, 34, 7, 27, 10, 20, 12, 11, 20, 13, 33, 23, 23, 12, 29, 34, 28, 34, 28, 26, 44, 19, 12, 5, 39, 33, 21, 23, 10, 4, 20, 14, 8, 17, 19, 17, 35, 8, 15, 27, 5, 16, 16, 13, 24, 4, 4, 40, 40, 11, 38, 35, 5, 28, 32, 18, 10, 6, 27, 39, 30, 11, 37, 18, 20, 30, 33, 16, 45, 28, 17, 31, 21, 21, 25, 31, 49, 26, 19, 47, 26, 39, 22, 45, 21, 39, 18, 43, 32, 39, 19, 52, 28, 24, 20, 29, 16, 5, 7, 12, 38, 37, 30, 27, 49, 11, 46, 49, 38, 18, 20, 33, 40, 25, 21, 6, 38, 29, 34, 31, 25, 36, 29, 33, 11, 18, 20, 18, 35, 36, 13, 18, 43, 18, 15, 48, 35, 16, 21, 6, 34, 45, 43, 20, 47, 45, 33, 19, 30, 22, 39, 28, 25, 38, 19, 32, 28, 21, 16, 28, 9, 30, 12, 29, 31, 8, 12, 34, 25, 30, 9, 22, 7, 17, 17, 15, 33, 31, 38, 15, 36, 22, 24, 15, 33, 10, 30, 26, 20, 33, 31, 16, 35, 19, 16, 32, 39, 19, 13, 33, 34, 6, 16, 12, 35, 25, 20, 36, 30, 12, 39, 28, 6, 8, 20, 11, 16, 27, 28, 5, 34, 14, 30, 26, 51, 25, 25, 9, 34, 2, 8, 22, 36, 6, 19, 42, 36, 14, 16, 28, 26, 9, 25, 8, 27, 30, 30, 13, 36, 17, 2, 16, 6, 4, 24, 29, 19, 1, 3, 13, 19, 3, 37, 26, 13, 30, 17, 26, 26, 13, 24, 31, 25, 15, 6, 7, 31, 27, 31, 39, 26, 35, 26, 30, 13, 37, 28, 15, 33, 33, 22, 25, 38, 15, 30, 10, 31, 6, 35, 22, 6, 7, 22, 6, 30, 18, 15, 14, 31, 30, 11, 15, 7, 8, 34, 18, 33, 25, 34, 11, 25, 11, 25, 19, 26, 29, 17, 25, 8, 34, 32, 11, 20, 25, 18, 18, 16, 18, 4, 32, 39, 22, 27, 26, 29, 24, 26, 26, 27, 19, 12, 31, 5, 6, 28, 29, 40, 29, 15, 39, 10, 34, 16, 28, 36, 14, 37, 26, 8, 39, 13, 35, 48, 35, 8, 31, 14, 5, 14, 15, 21, 12, 14, 20, 16, 38, 16, 7, 12, 26, 50, 47, 9, 15, 19, 63, 57, 40, 61, 31, 64, 64, 48, 30, 62, 39, 62, 51, 65, 30, 25, 59, 55, 52, 34, 9, 22, 31, 36, 58, 41, 50, 43, 35, 50, 43, 60, 30, 56, 65, 50, 27, 39, 20, 41, 45, 40, 39, 44, 27, 30, 42, 58, 30, 36, 40, 18, 38, 38, 55, 56, 31, 35, 47, 45, 13, 6, 15, 55, 37, 63, 64, 65, 29, 35, 33, 55, 13, 30, 31, 55, 40, 65, 31, 12, 36, 33, 47, 50, 29, 54, 44, 34, 43, 55, 22, 45, 45, 23, 22, 37, 31, 42, 30, 26, 45, 34, 15, 46, 36, 30, 57, 45, 37, 52, 19, 63, 50, 66, 34, 47, 53, 57, 31, 66, 41, 59, 37, 32, 35, 27, 57, 34, 38, 59, 9, 39, 11, 57, 59, 36, 6, 33, 14, 7, 53, 58, 11, 26, 37, 12, 35, 37, 30, 11, 47, 30, 44, 66, 22, 31, 26, 29, 36, -10, 24, 42, 38, 24, 42, 59, 38, 2, 17, 23, 8, 47, 61, 27, 27, 38, 55, 35, 30, 53, 26, 58, 32, 64, 58, 42, 31, 14, 20, 16, 20, 8, 38, 35, 11, 36, 42, 39, 49, 31, 24, 34, 27, 25, 39, 39, 50, 42, 25, 8, 1, 39, 43, 64, 5, 48, 19, 46, 49, 34, 17, 17, 9, 24, 49, 55, 33, 20, 45, 48, 52, 61, 39, 41, 31, 18, 18, 46, 42, 21, 39, 12, 48, 35, 48, 14, 45, 42, 30, 37, 43, 56, 39, 31, 16, 33, 33, 17, 14, 10, 39, 44, 28, 13, 36, 23, 67, 36, 52, 28, 55, 39, 34, 34, 55, 16, 58, 61, 45, 60, 45, 55, 47, 54, 56, 50, 52, 38, 47, 30, 55, 55, 34, 23, 52, 63, 59, 36, 43, 33, 64, 54, 57, 56, 39, 47, 31, 27, 41, 39, 30, -6, 26, 23, -12, 27, -6, 10, 33, 16, 43, 8, 18, -7, 53, 27, 9, 55, 41, 27, 35, 38, 68, 54, 39, 13, 37, 36, 25, 41, 55, 19, 54, 39, 36, 27, 50, 61, 54, 35, 37, 44, 58, 47, 60, 52, 53, 33, 33, 34, 62, 14, 47, 2, 21, 34, 51, 31, 67, 25, 54, 49, 26, 35, 49, 58, 45, 28, 36, 47, 1, -1, 17, 23, 46, 62, 41, 45, 34, 23, 41, 28, 19, 39, -2, 6, 12, 33, 34, 19, 45, 48, 38, 35, 39, 25, 37, 20, 28, 38, 37, 36, 20, -9, 13, 2, 50, 15, 15, 32, 42, 27, 49, 38, 16, 17, 17, 39, 32, 21, 47, 44, 52, 45, 21, 2, 39, 33, 33, 20, 17, 18, 32, 32, 37, 38, 3, 17, 45, 0, 32, 23, 40, 30, 42, 19, 25, 20, 49, 33, 59, 21, 27, 30, 47, 62, 9, 33, 30, 31, 45, 45, 49, 49, 64, 29, 36, 50, 34, 31, 65, 23, 16, 38, 29, 4, 40, 10, 36, 40, 22, 25, 37, 19, 20, 8, 41, 39, 62, 1, 18, 33, 21, 4, 15, 52, 40, 24, 43, 29, 29, 28, 5, 0, 9, 35, 9, 30, 30, 33, 14, 43, 38, 31, 15, 49, 32, 12, 2, 4, 8, 12, 13, 35, 9, 36, 13, 53, 6, 13, 13, 31, 35, 42, -5, -12, 39, 47, 54, 30, 50, 25, 33, 12, 23, 7, 6, 19, 6, 39, 24, 5, 61, 40, 32, 28, 14, 14, 57, 20, -9, 25, 15, 35, 62, 67, 14, 5, 66, 67}
, {-35, -15, -17, -12, -21, -29, -40, -33, -34, -34, -38, -27, -36, -29, -20, -34, -47, -27, -21, -34, -39, -44, -16, -28, -22, -16, -14, -40, -40, -42, -45, -40, -35, -26, -42, -16, -36, -42, -32, -22, -42, -26, -27, -18, -19, -41, -21, -16, -32, -33, -45, -46, -28, -17, -38, -41, -43, -34, -38, -45, -38, -34, -14, -39, -41, -30, -29, -16, -13, -23, -22, -35, -36, -15, -20, -13, -29, -36, -37, -29, -20, -39, -22, -36, -15, -44, -40, -22, -37, -13, -33, -35, -14, -16, -34, -30, -13, -33, -38, -12, -46, -17, -48, -39, -30, -29, -42, -48, -29, -37, -27, -35, -17, -46, -24, -13, -38, 42, -34, -22, 44, -36, -16, -18, -46, -48, -19, -25, -42, -33, -34, 26, 29, -25, -20, -37, -40, -14, -41, -30, 18, -17, -32, 23, -46, -22, -25, -47, 37, -45, -18, -15, -29, -35, -40, -15, -36, -20, -45, -39, -17, -26, -24, -25, -17, -16, -19, -38, -29, -14, -42, -39, -18, -23, -18, -44, -27, -16, -27, -46, -29, -34, -25, -40, -32, -39, 13, -16, -40, -16, -18, -35, -16, -16, -31, 20, 12, -26, 48, -17, -48, -17, -35, -14, -42, -14, -24, -14, -31, -14, -21, -28, -31, -19, -19, -13, -42, -40, -25, -30, -14, -16, -12, -40, -15, -29, -25, -46, -36, -14, -43, -42, -21, -13, -26, -25, -34, -32, -40, -39, -26, -12, -35, -18, -22, -15, -33, -36, -35, -37, -23, -44, -43, -22, -13, -40, -31, -18, -25, -25, -38, -41, -21, -44, -35, -47, -36, -17, -44, -26, -44, -35, -20, -39, -28, -29, -37, -20, 39, -41, -14, -36, -36, -40, -34, -20, -14, -13, -29, -13, -27, -22, -41, -34, -27, -41, -14, -32, -20, -21, -30, -29, -39, -40, 31, -23, -48, -27, -41, -18, -17, 27, -19, -28, -30, -48, -47, -47, -28, -35, -18, -20, -38, -31, -43, -14, -28, -40, -44, -24, 36, 22, 20, -12, 48, -13, -32, -30, -33, -13, 20, -17, -41, -34, -41, 27, 30, -31, -13, -47, -39, -47, -46, -17, -47, -37, -42, -24, -29, -30, -22, -34, -28, -36, -20, -33, -40, -28, -29, -44, -21, -40, -18, -37, -33, -16, -40, -39, -14, -24, -15, -22, -23, -33, -23, -25, -12, -35, -17, -43, -25, -38, 12, 15, 44, 38, 21, -41, -45, -22, -48, -21, -22, -18, -13, -28, -15, -37, -19, -27, -34, -44, -23, -41, -26, -17, -30, -24, -29, -26, -43, 46, -14, -24, -17, -31, -27, -16, -31, -26, 32, 41, 23, -16, -47, -25, 39, -33, -19, -42, -31, -21, -45, -26, 26, 43, -38, -47, -36, 42, -30, -46, -18, 25, -33, 23, 14, -18, 19, -19, -19, 39, -19, 20, 44, 30, -48, -31, 24, -42, -13, -29, -36, -16, 16, -14, -31, -13, 39, -41, -16, -46, -40, -27, -34, 33, -13, -40, 46, -30, -22, 25, 30, 26, -12, -31, -39, -22, -16, -30, -26, 42, -22, -18, -45, -38, 38, -33, -31, -37, -17, -17, -13, -44, 47, 40, 35, 26, -35, 28, -42, -39, -45, 44, -37, -47, -29, 42, 31, 37, 47, 48, -43, 32, -29, -21, 42, -18, 34, 45, -13, 47, -41, -31, -15, -16, 15, -38, 45, -21, 34, 37, 22, 28, 44, 14, 37, -26, -15, -33, -39, -21, -14, -20, -40, 44, 15, 14, 42, -29, -36, 21, -47, -33, 39, 16, 16, 41, 34, 46, -35, -44, -24, -30, -20, 45, 37, 5, -5, -5, -38, -46, -50, 16, -30, -50, -20, 36, 36, -38, -53, -48, -33, -25, -32, 17, 3, -21, -27, -54, -26, -34, -57, -32, -21, -4, -8, -62, 14, -34, -53, -13, 32, 33, 3, 27, 26, -43, -19, -32, -6, -8, 11, 34, -42, -25, 0, -26, 32, -52, -27, -41, -9, -27, -42, -43, -11, 0, -43, -39, -56, -47, -27, -46, -1, 27, -29, -9, 9, -3, -15, -35, -52, -61, -33, -39, -56, -23, -57, -50, -47, 5, 4, -54, -29, -35, 15, -26, -43, -33, 14, -34, 25, 27, -33, -36, 8, -53, -27, 37, 28, -30, 5, -16, 13, 33, 8, 13, 0, 10, -50, -31, -47, 20, 11, 15, 0, -46, 28, -13, -30, 0, -23, -44, -35, 18, -44, 29, 41, 25, -2, 4, -2, 20, 38, 1, -31, -42, 24, -51, -36, 35, 5, -33, 12, 7, 35, 28, -30, -30, 23, 6, -8, -60, -32, -32, -14, 0, 25, 15, 1, 22, 12, 18, 5, 32, 10, 5, -48, -47, -33, 21, 6, 16, -2, -48, -36, -36, -11, -44, -10, -55, -18, 43, 2, 17, -29, 9, -56, 18, -27, 14, -34, -48, -52, 7, 27, -26, -55, -21, -56, -22, -22, 7, -26, 14, 36, 20, -51, -34, -53, -42, -50, -34, -33, -33, -26, -33, 2, 16, -32, -41, 9, 0, 16, 25, 11, -27, -53, 33, -57, 5, 35, 11, 20, -43, -40, -51, 2, 14, 33, 3, 29, 14, -6, -18, 10, 8, 24, -40, -23, -43, 2, -39, 8, 36, 41, 46, -15, 28, -10, 8, -36, -31, 8, -23, 24, -19, -41, -28, -23, -35, -44, -18, -25, -25, -29, -30, -32, -44, -33, -29, -33, -29, -38, -20, -49, -19, 24, -32, -56, -31, 24, 20, -14, -29, -17, -37, 20, 10, 26, -31, 17, 34, 14, -26, 38, 31, 32, 22, -46, -25, -15, -40, 22, -32, -4, -43, 30, 24, -44, 3, 31, 45, 24, 58, 30, -24, -41, 40, 10, 18, 22, -12, 41, 29, 13, 17, 41, -17, -36, 34, 34, 45, -54, -9, 26, -11, 9, -46, 8, 47, -29, 34, 2, 6, 24, 21, 12, -27, 15, 26, 36, 17, 8, -38, -32, -17, -35, 38, -12, -29, 18, 22, 23, 54, -15, 38, 10, 15, -29, -41, 12, 18, 49, 16, 12, 15, -40, 47, 20, 20, 52, 41, -19, -11, 45, -46, 30, 28, 28, 19, -39, 45, 25, -30, -17, 18, 37, 16, 49, 37, 10, 7, 31, 21, 47, -28, 42, 36, 28, 33, 33, 43, 38, 33, -10, 27, 31, 38, 34, 23, 20, 20, 6, -14, 43, 43, -30, -17, 39, 40, 28, 33, 40, 21, 8, -47, -37, -16, 36, 41, 47, 37, -34, 18, 9, 16, -38, 3, -46, -16, 22, 18, 35, -18, -45, 13, 34, -20, 33, 40, 15, -31, -37, -38, 38, 6, 18, 17, 43, 39, -30, 32, 21, 49, 15, 27, 12, 33, 27, -33, -45, 35, 43, -20, -24, -22, -44, 47, 3, 32, 18, -20, -6, 37, 35, 49, -20, -30, -19, -35, -43, 40, 21, -27, -38, -16, -23, 20, 53, -14, -15, 17, 43, 19, -21, 20, 17, -24, 29, 34, -16, -47, -28, 27, -34, 45, -27, -27, 32, -22, -43, -26, -8, -1, -37, -28, 28, 42, 14, -22, -19, 53, -32, 48, 37, -45, -16, -24, -22, 36, 21, -14, 40, -25, -48, -33, 26, -16, -12, -15, 51, 52, 28, 40, 24, 51, 42, -15, 2, -39, 46, 18, 6, -12, 13, 13, -13, -10, 12, -42, -36, -17, 9, -1, -13, -25, 15, -6, 19, -13, 0, 16, -13, -29, 4, 19, 11, 20, 1, 9, 14, 15, -41, 16, 8, -10, 20, 8, 0, 1, -23, -25, 11, -15, -19, 0, 15, -17, -4, -18, -10, -24, -27, -25, -14, -14, 9, 5, -20, 10, 13, -9, -49, -16, -18, -49, -28, 0, 10, -22, -45, 14, 14, -15, -38, -45, -32, -33, -41, -1, -4, -21, -14, -35, -5, -3, -25, -19, -34, -4, 4, -49, -13, -53, 5, -46, -19, -23, -44, -49, -58, -55, -28, -43, -51, -41, -54, -39, -27, -47, -39, -35, -35, -11, -5, 10, 1, -6, -26, -23, -52, -35, -32, -26, -36, -56, -60, -48, -59, -46, -49, -40, -18, -52, -43, -53, -56, -26, -58, -27, -33, -54, -42, -19, -38, -39, 0, -13, -3, -5, -40, -42, -34, -23, -40, -18, 13, 1, 9, -50, -38, -25, -43, -51, -44, -37, -36, -48, -38, -20, -10, -48, -28, 2, 4, -42, -45, -33, -25, -8, 3, 19, -2, -20, -27, -20, -25, -32, -19, -38, -32, -13, 3, 1, -33, -16, -23, -45, -3, 14, 2, -41, 15, 20, 19, 2, -22, -30, -26, -14, -6, 0, 6, -11, -42, -37, -18, 5, -6, -10, -24, -45, -47, -10, 20, -10, 18, -38, -28, -37, -20, -27, 11, 9, -11, -14, -11, -31, -18, -28, -21, 13, 6, 7, -15, -3, -10, -53, 4, 0, 6, -10, -2, -33, -42, -34, -29, -19, -3, -1, 10, 1, -12, -22, -31, 9, -13, -3, -18, 9, -9, -28, -3, -41, -32, -18, -27, 8, -11, -49, -31, -11, 6, -20, -42, -38, 6, -20, 2, 0, 2, -6, 9, -24, 0, 2, -42, -34, -20, -20, -22, -8, 0, -16, -8, 2, -45, -48, -36, -18, -47, -31, -4, 0, -50, -6, 10, 21, -3, -15, -41, -41, -44, 0, 17, -5, -10, 17, 18, 13, -13, -45, -9, 13, -7, -17, -15, 14, 9, -8, -17, -3, 5, 5, 11, -5, -11, 8, -8, 12, -2, 0, -2, 2, -4, 4, -3, -53, -4, -20, -22, -2, -4, 10, -20, -11, 8, -3, -5, 1, -7, 4, 12, -3, -14, 0, -15, -14, 10, 2, 18, 12, 3, 0, -11, 10, 20, 14, -11, -13, 3, 7, 6, 1, 15, 14, 16, -3, -4, 15, 0, 0, -14, 4, -11, -3, 8, 18, -8, 13, 18, 13, 14, -4, 2, 12, 12, 22, 10, -6, 10, -1, 16, 20, 15, 16, 6, -3, 0, -51, -20, 0, 13, -13, 12, 3, 14, 7, -10, -32, 11, 18, 18, 13, -8, 14, 16, 7, -11, -5, 0, 0, 0, 16, 4, -7, 20, 23, -10, -6, 0, 23, -1, -25, 17, 11, -7, -12, -12, 16, 9, -4, -18, 2, -13, 5, 6, 18, -11, 17, 1, 21, -3, -25, -12, -5, 4, -19, -1, -1, 14, -8, -5, 9, 13, -15, 12, -27, -16, 4, 6, -16, 0, -2, 1, 13, 0, -4, -13, -1, -19, -50, 11, -19, 8, -2, -15, -7, 6, 1, 7, -41, -15, -2, -47, -25, -34, -6, -9, -6, 9, -18, -24, -34, -21, 9, 6, -19, -3, 11, 10, -6, -9, -19, 11, -7, -24, -46, -3, 10, 6, 0, 2, 0, -4, -11, -13, 3, 11, 9, -14, -7, 7, -13, -13, -4, 12, 20, 0, -5, -42, 7, -44, -27, 12, 1, 5, 22, 18, 3, -3, 19, -31, -35, -4, -21, -3, 3, -14, 21, 14, 1, 34, -1, 10, 15, 3, 24, 7, 29, 23, 20, 23, 4, 26, 3, 23, 33, 14, 2, 0, 0, 18, 4, 23, 18, 10, 21, 34, 35, 5, 20, 13, 15, 26, 7, 8, 16, 31, 10, 6, 12, 7, 2, 7, 22, 9, 27, 23, 24, 4, 25, 2, 28, 30, 10, 17, 7, 7, 12, 35, 8, 18, 35, 7, 32, 29, 35, 36, 23, 31, 16, 29, 25, 9, 27, 35, 38, 27, 10, 25, 15, 15, 6, 6, 32, 36, 11, 18, 39, 16, 16, 18, 13, 13, 23, 35, 31, 29, 6, 18, 27, 19, 26, 12, 30, 8, 20, 31, 5, 25, 29, 27, 31, 9, 18, 33, 10, 11, 30, 21, 36, 16, 19, 12, 14, 35, 24, 4, 27, 5, 15, 16, 19, 23, 8, 16, 32, 29, 5, 23, 22, 29, 11, 27, 27, 38, 24, 25, 39, 37, 38, 25, 31, 22, 23, 27, 5, 26, 18, 39, 11, 25, 12, 21, 17, 30, 39, 39, 20, 13, 5, 21, 32, 12, 27, 36, 37, 8, 37, 12, 29, 10, 27, 39, 29, 28, 35, 35, 13, 35, 7, 44, 5, 37, 5, 22, 39, 50, 27, 40, 32, 34, 25, 29, 33, 20, 24, 27, 26, 7, 31, 3, 22, 5, 30, 22, 5, 35, 14, 32, 15, 14, 24, 27, 24, 31, 22, 19, 22, 23, 16, 36, 35, 27, 18, 25, 23, 33, 29, 5, 32, 8, 11, 18, 21, 9, 20, 27, 10, 33, 17, 9, 39, 17, 28, 36, 26, 37, 6, 29, 10, 26, 15, 28, 6, 7, 37, 16, 12, 30, 40, 8, 31, 30, 40, 11, 24, 26, 10, 17, 9, 33, 12, 31, 13, 6, 37, 24, 29, 19, 15, 7, 27, 19, 30, 19, 27, 22, 8, 14, 39, 6, 11, 19, 3, 7, 15, 21, 35, 35, 30, 22, 27, 17, 7, 15, 2, 34, 24, 20, 17, 18, 10, 21, 17, 38, 25, 15, 6, 11, 30, 17, 20, 38, 8, 33, 27, 22, 31, 5, 9, 38, 35, 37, 12, 6, 18, 23, 34, 29, 6, 9, 18, 8, 14, 34, 10, 27, 17, 5, 13, 18, 19, 28, 14, 15, 2, 5, 14, 25, 6, 30, 2, 27, 27, 33, 29, 28, 23, 36, 28, 15, 28, 38, 12, 28, 34, 4, 17, 36, 28, 29, 33, 23, 18, 26, 47, 4, 22, 16, 14, 21, 0, 10, 24, 22, 5, 1, 24, 3, 28, 9, 36, 34, 15, 17, 32, 15, 13, 33, 20, 23, 32, 27, 31, 30, 27, 28, 48, 26, 21, 11, 6, 38, 36, 5, 20, 18, 6, 5, 52, 30, 32, 45, 41, 43, 40, 17, 26, 28, 29, 39, 16, 22, 51, 20, 29, 16, 28, 38, 53, 25, 33, 28, 18, 29, 32, 37, 40, 25, 30, 23, 41, 45, 13, 42, 33, 33, 9, 38, 29, 18, 22, 17, 19, 38, 39, 23, 49, 18, 9, 32, 11, 8, 38, 20, 29, 42, 3, 9, 36, 24, 28, 28, 10, 24, 24, 33, 15, 27, 19, 36, 45, 52, 25, 27, 27, 29, 21, 40, 25, 12, 9, 12, 16, 44, 36, 29, 9, 29, 35, 19, 23, 10, 31, 43, 34, 10, 24, 34, 18, 41, 29, 26, 14, 38, 34, 35, 18, 32, 32, 34, 32, 15, 41, 36, 18, 16, 10, 36, 8, 7, 17, 48, 33, 42, 34, 31, 47, 45, 35, 32, 36, 46, 41, 34, 53, 21, 46, 18, 23, 33, 6, 35, 26, -36, -26, -29, -26, -8, -31, -48, -37, -41, -10, -19, -13, 40, 18, -28, -24, -3, -3, 14, -35, -38, -19, -6, -38, -12, -44, -22, 1, -16, -14, -16, -45, -1, -3, -29, -46, -41, -33, -16, -20, 38, -19, -25, -22, -10, -48, -47, 24, -2, -23, -27, -31, -36, -13, -16, -41, 43, 3, -42, 14, 45, 22, -11, -43, -44, -42, -20, -10, 38, -30, -12, -45, -17, -48, -23, -32, 28, -28, -27, -37, 29, -24, 11, -23, 41, 18, -10, -32, -24, -15, -21, -12, -39, -47, -24, -27, -36, -35, -43, -21, 8, -1, -11, -17, -35, -29, -17, -16, -26, -46, -21, -37, -37, -29, -45, -28, -31, -46, 36, 22, -14, -16, -10, -30, -14, -46, -41, -26, -14, -27, 14, 13, -23, -20, -33, 39, -31, -23, -34, -43, -46, -15, -37, -37, -31, -16, 8, 3, -33, -42, -4, -13, -47, -31, -46, -25, -7, 37, 8, 11, -23, -41, 31, -24, -25, -16, -34, -45, -15, -27, -35, -43, -8, -5, -7, -33, -23, -22, -15, 45, -48, -18, -18, -45, -31, -30, -11, -32, -39, -28, -16, -25, -47, -14, -31, -33, -30, -44, -32, 20, -44, -26, -44, 24, -20, -29, -15, -22, 21, -30, -5, -23, -41, -41, -18, 11, -27, 31, -24, -44, -18, -27, -35, -38, -40, -33, -40, -28, -26, 15, -24, -23, -33, -28, 15, -28, 36, -40, -31, -14, -39, -41, 10, 46, -37, -43, -23, -12, -29, -39, -15, -36, -25, -16, -44, -1, -37, -46, 40, -43, -28, -19, -15, -13, -21, -35, -31, -35, -30, -9, -48, -11, -32, -30, -32, -38, 6, 5, -15, -14, -48, -16, -10, -44, 0, 0, -42, -29, -44, -17, -14, 17, -17, -24, -45, -15, -31, -21, -16, -29, -18, 10, -36, -36, -38, -29, -25, 13, 13, -37, -40, -16, 6, -11, -48, -39, 14, -40, -15, -16, -14, -35, -42, 27, 13, -37, -24, -33, -19, -42, -15, -22, -44, -24, -17, -28, -22, -38, -29, -15, -38, -24, -23, -43, -5, -31, -22, 0, 28, -48, 0, -19, -13, -42, -32, -14, -15, -46, -35, -44, -34, -46, -13, 44, 39, -7, 8, 16, -30, -41, 40, 43, -14, -21, 44, -27, 19, 15, 18, -40, -32, -11, 14, -19, -16, -21, -23, -37, -44, 16, -19, -3, 18, -37, -32, -38, -43, -16, -19, -28, 10, 2, -28, -30, -14, -1, -41, -42, -31, -16, -26, -16, -43, -13, 2, -15, -30, -12, -30, -10, -17, -46, 12, -18, -34, -30, -42, -27, -42, -39, -12, -30, 26, -35, -27, -21, -40, -34, -21, -14, -23, -26, -21, -23, -39, -36, -20, -45, -41, -29, -34, -38, -12, 15, 38, -12, -33, -12, -22, -48, -34, -26, -5, -12, -17, -23, 5, -43, 10, 9, -26, -26, -34, -14, 15, -30, 26, -26, -32, -12, -26, -26, -34, -34, -38, -41, -38, -28, 3, 0, -39, 15, -32, 47, -18, -27, -13, 22, 45, -9, 13, 37, 0, -28, -1, -21, -14, -14, -40, 17, -41, -43, 3, -24, -42, -42, -24, -44, -45, -22, -39, -31, -35, -48, -42, 2, -41, -3, -48, -32, -39, -15, -27, -42, -2, 10, -31, -26, -17, 12, -16, -22, -11, -41, -13, -16, -47, -42, -28, -28, -46, -9, -16, -32, 31, -40, -37, -28, -4, -15, -26, -46, -43, -38, -45, -12, -17, -44, -14, -31, -27, -39, 28, 11, 25, -14, 27, 16, 38, 13, 44, -45, -41, -16, 35, -30, -31, 27, 20, 32, 37, 38, 24, 27, 22, 21, 11, 33, 6, 33, 2, 3, -1, 7, -7, 8, 19, 11, 21, 20, 1, 29, 20, 24, 25, 43, 7, 26, 24, 26, 26, 24, 16, 12, 9, 13, 34, 29, 12, 18, 8, 22, 36, 6, 16, 37, 33, 0, 27, 44, 34, 27, 23, 3, 19, 17, 23, 42, 11, 44, 42, 27, 49, 41, 12, 43, 24, 19, 8, 20, 32, 52, 41, 33, 24, 37, 15, 39, 30, 23, 44, 30, 40, 36, 29, 26, 41, 11, 48, 35, 39, 30, 55, 34, 43, 28, 27, 42, 44, 41, 29, 17, 14, 48, 24, 40, 28, 45, 22, 24, 37, 58, 34, 46, 51, 18, 16, 50, 53, 36, 11, 47, 19, 23, 40, 15, 46, 32, 21, 37, 26, 30, 18, 26, 18, 32, 26, 32, 47, 35, 30, 35, 56, 56, 27, 25, 19, 31, 28, 53, 24, 33, 46, 54, 48, 27, 40, 36, 59, 40, 40, 26, 41, 36, 51, 48, 50, 24, 32, 25, 55, 12, 12, 40, 31, 53, 34, 38, 28, 52, 35, 31, 36, 33, 31, 30, 22, 28, 36, 33, 53, 13, 15, 40, 22, 37, 57, 49, 49, 35, 34, 43, 29, 31, 35, 56, 40, 38, 54, 34, 40, 24, 56, 24, 58, 28, 29, 59, 46, 47, 45, 20, 40, 37, 43, 57, 35, 45, 50, 45, 50, 28, 38, 36, 55, 27, 44, 37, 59, 47, 50, 24, 14, 48, 35, 19, 45, 41, 40, 43, 15, 13, 45, 58, 38, 35, 43, 54, 26, 46, 42, 58, 43, 37, 53, 45, 34, 43, 25, 33, 31, 18, 37, 19, 27, 41, 37, 38, 25, 33, 45, 35, 51, 36, 37, 34, 19, 24, 32, 21, 46, 31, 39, 26, 49, 42, 50, 36, 32, 43, 33, 51, 47, 13, 40, 50, 38, 18, 32, 36, 31, 24, 52, 47, 22, 21, 50, 22, 48, 28, 41, 52, 55, 25, 55, 57, 29, 37, 32, 33, 12, 45, 42, 42, 36, 56, 25, 23, 34, 44, 48, 50, 25, 32, 31, 15, 24, 54, 53, 53, 45, 54, 56, 48, 40, 36, 53, 50, 46, 38, 22, 54, 27, 32, 24, 22, 51, 34, 34, 14, 23, 45, 38, 45, 37, 34, 16, 19, 31, 51, 23, 41, 16, 27, 34, 19, 45, 52, 43, 43, 14, 33, 34, 25, 24, 5, 2, 26, 9, 27, 35, 37, 10, 28, 40, 35, 35, 22, 38, 49, 36, 11, 32, 22, 24, 16, 34, 31, 8, 48, 43, 20, 33, 19, 35, 45, 31, 42, 28, 37, 28, 24, 20, 22, 36, 50, 53, 36, 16, 39, 15, 40, 41, 32, 22, 9, 29, 21, 24, 44, 42, 42, 9, 36, 48, 49, 38, 22, 51, 26, 14, 32, 29, 22, 17, 39, 18, 48, 23, 30, 54, 35, 51, 49, 45, 46, 32, 15, 24, 22, 47, 31, 41, 51, 32, 33, 21, 12, 46, 24, 19, 25, 11, 40, 40, 49, 37, 47, 16, 24, 22, 58, 13, 40, 25, 58, 30, 38, 46, 28, 39, 58, 19, 34, 30, 24, 27, 34, 26, 27, 15, 24, 36, 46, 44, 35, 47, 57, 30, 45, 13, 53, 56, 45, 46, 20, 15, 47, 26, 31, 52, 24, 56, 59, 23, 32, 23, 22, 49, 47, 36, 9, 31, 37, 29, 16, 32, 46, 30, 33, 19, 29, 41, 18, 33, 21, 19, 4, 18, 25, 37, 39, 21, 44, 26, -1, 9, 35, 6, 12, 16, 0, 23, 28, 24, 13, 5, 35, 20, 16, 25, 25, 24, 32, 16, 24, 16, 6, 6, 9, 18, 26, 4, 20, 19, 7, 3, 20, 4, 38, 3, 38, 13, 27, 19, 33, 33, 10, 18, 37, 27, 31, 7, 38, 13, 32, 10, 8, 21, 23, 31, 24, 13, 37, 26, 29, 11, 29, 36, 27, 3, 32, 16, 12, 16, 18, 39, 37, 23, 36, 22, 21, 34, 16, 8, 11, 17, 37, 36, 28, 34, 21, 8, 24, 40, 35, 23, 39, 38, 24, 14, 14, 31, 3, 28, 41, 37, 9, 9, 34, 8, 26, 29, 12, 30, 17, 37, 41, 40, 24, 18, 36, 8, 40, 33, 18, 28, 5, 8, 50, 14, 31, 31, 9, 33, 30, 14, 6, 33, 5, 22, 23, 26, 31, 5, 19, 16, 24, 5, 22, 14, 35, 8, 6, 20, 39, 39, 34, 35, 31, 26, 15, 20, 35, 34, 41, 31, 9, 19, 17, 23, 16, 24, 34, 18, 29, 20, 9, 14, 16, 7, 37, 12, 13, 8, 44, 25, 19, 38, 5, 38, 35, 47, 44, 24, 15, 31, 16, 10, 23, 39, 34, 29, 18, 11, 41, 32, 48, 34, 32, 44, 42, 48, 39, 37, 39, 29, 22, 23, 42, 27, 10, 36, 33, 20, 20, 24, 29, 23, 14, 21, 12, 34, 20, 8, 19, 16, 16, 5, 7, 34, 38, 31, 15, 18, 50, 39, 17, 39, 38, 28, 13, 17, 25, 10, 34, 19, 18, 10, 41, 20, 7, 34, 39, 8, 20, 34, 38, 6, 30, 39, 18, 26, 18, 47, 26, 24, 8, 25, 23, 42, 21, 20, 18, 27, 12, 15, 24, 7, 29, 24, 29, 28, 40, 25, 11, 7, 33, 23, 38, 12, 9, 6, 15, 12, 20, 31, 30, 10, 15, 21, 11, 7, 19, 4, 6, 8, 38, 22, 6, 21, 34, 23, 37, 37, 36, 14, 32, 16, 48, 7, 26, 30, 12, 22, 18, 33, 7, 11, 11, 32, 35, 6, 35, 24, 39, 21, 10, 20, 19, 31, 13, 33, 17, 13, 26, 12, 28, 4, 21, 8, 16, 15, 39, 26, 9, 36, 30, 22, 33, 20, 24, 14, 9, 32, 12, 5, 25, 30, 7, 16, 21, 17, 33, 29, 12, 9, 35, 32, 27, 4, 17, 26, 5, 24, 25, 7, 45, 36, 23, 23, 14, 14, 36, 4, 35, 48, 8, 22, 7, 34, 13, 25, 19, 25, 11, 19, 4, 39, 6, 30, 28, 37, 3, 25, 14, 30, 36, 19, 25, 30, 38, 10, 20, 29, 31, 13, 37, 47, 8, 7, 18, 17, 40, 14, 18, 36, 36, 31, 16, 25, 29, 43, 39, 19, 39, 14, 34, 7, 35, 31, 49, 20, 46, 34, 12, 7, 39, 48, 39, 21, 33, 51, 21, 52, 50, 27, 44, 36, 34, 33, 46, 51, 16, 42, 49, 40, 22, 32, 34, 29, 48, 49, 36, 28, 34, 51, 25, 23, 10, 12, 31, 31, 22, 40, 21, 29, 37, 35, 15, 32, 10, 8, 31, 28, 16, 21, 21, 20, 12, 28, 31, 10, 16, 7, 34, 42, 34, 43, 43, 23, 18, 22, 40, 35, 24, 30, 18, 19, 23, 37, 42, 23, 17, 34, 19, 30, 40, 7, 23, 6, 24, 41, 25, 41, 25, 30, 27, 36, 40, 6, 11, 24, 40, 29, 39, 22, 42, 37, 30, 38, 16, 24, 7, 42, 33, 18, 8, 42, 16, 19, 33, 31, 22, 29, 31, 33, 31, 36, 38, 26, 34, 22, 27, 20, 37, 34, 27, 7, 11, 22, 13, 21, -17, 13, 6, 9, -12, 2, 3, 1, -2, 8, 5, -7, 0, 7, -11, 19, 25, 25, -8, 12, 14, -9, 16, 21, -46, 2, 14, 20, 11, 18, 14, -7, -3, 12, 14, 5, -2, 12, 17, 23, -6, 10, 19, -7, 11, 12, -8, -2, 12, -12, 1, -4, 11, 4, -10, -1, 1, 10, 11, 5, 11, 20, 16, 17, 11, 11, 6, 11, 30, 15, 5, 22, 9, 3, 7, 32, 27, 14, 17, 1, 13, 31, 26, 18, -3, -1, 23, 7, 20, 2, 0, 4, 14, 17, 28, 23, 7, 27, 21, 6, 14, 1, 36, 29, 25, 29, 23, 14, 15, 45, 35, 9, 13, 6, 22, 31, 35, 33, 5, 33, 7, 22, 25, 15, 19, 11, 4, 25, 34, 33, 21, 12, 36, 45, 22, 24, 22, 14, 17, 6, 21, 31, 23, 30, 15, 3, 4, 20, 22, 14, 22, 12, 35, 5, 5, -1, 23, 19, 28, 45, 36, 32, 31, 25, 26, 18, 8, 25, 22, 13, 23, 9, 23, 12, 11, 10, 37, 23, 38, 7, 3, 28, 16, 2, 12, 45, 44, 22, 17, 21, 24, 39, 22, 26, 16, 6, -1, -1, 31, 18, 11, 6, 5, 16, 20, 23, 36, 34, 5, 34, 16, 14, 7, 30, 29, 20, 34, 21, 26, 30, 0, 13, 13, 15, 10, 3, 30, 29, 30, 23, 25, 13, 29, 28, 4, 23, 11, 29, 25, 9, 0, 21, 20, 19, 30, 9, 30, 10, 45, 40, 14, 28, 28, 3, 21, 0, 0, 3, 20, 20, 22, 30, 33, 25, 21, 33, 15, 32, 24, 23, 25, 3, 26, 31, 13, 7, 17, 7, 28, 0, 16, 4, 19, 9, -1, 13, 25, 25, -10, 12, 5, 22, 7, 15, 27, -6, 24, -12, -6, -3, 10, 20, -12, -2, 13, 2, 8, -13, 9, 22, 22, 16, -2, -2, 4, 35, 1, 17, -2, 21, -9, 27, 25, 32, 1, 10, 26, 3, 27, 22, 3, 38, 26, 17, 42, 45, 25, 0, 0, 30, -2, 4, 9, 5, 6, 0, 21, -3, 25, 10, 18, 30, 24, -1, 32, 28, 28, 14, 15, 7, 35, 20, 38, 16, 17, 32, 9, 28, 7, -5, 18, 5, 0, 9, 28, 32, -1, 24, 11, 11, 41, 6, 21, 20, 32, 16, 25, 4, 28, 19, -4, 2, 20, 0, -3, 34, 25, 5, 34, -15, 28, 34, 29, 31, 14, 10, 18, -4, 11, 5, -6, 21, 25, 28, 13, 39, 35, 2, 22, -12, -3, -4, 11, 8, 13, 23, 1, 6, 32, 35, 13, 12, 16, -5, 1, 8, 3, 17, 2, 8, 12, -13, -20, 18, -9, 14, 0, 5, -5, 23, 28, -7, 29, 2, 17, 6, 0, 26, 29, 29, 1, 17, 9, 11, 8, 1, 0, 10, 1, 10, -3, -4, -7, -2, -9, 4, -17, -13, -20, -7, 9, -28, -16, -16, -28, -13, 7, 16, 19, 2, 18, -12, 19, 6, 13, 8, -6, 6, -9, -13, -19, -13, -9, -20, -4, -4, 1, 25, -19, 6, -12, -15, -3, -24, 6, 2, -4, -2, -12, 13, 6, 2, 20, 33, 22, 21, 18, -1, -18, 11, 17, 16, 4, -13, -13, 0, 5, 16, 16, -4, 8, -3, 22, 23, 37, 9, 23, 1, 25, 21, 10, 0, 28, 4, 1, 21, 10, 4, 17, -2, -21, -7, -16, 0, -14, 23, 25, 20, 9, 24, 14, 3, 26, 25, 41, 22, 10, -18, 22, 3, 11, 33, -6, -15, -26}
, {16, 32, 26, 38, 24, 20, 14, 31, 42, 34, 46, 27, 34, 24, 44, 18, 21, 33, 24, 16, 36, 48, 30, 26, 27, 17, 38, 44, 19, 13, 14, 34, 29, 25, 33, 13, 22, 46, 13, 22, 29, 30, 48, 40, 32, 37, 42, 27, 15, 46, 22, 13, 13, 20, 25, 29, 21, 19, 37, 30, 41, 14, 30, 45, 48, 28, 42, 36, 13, 13, 28, 36, 40, 46, 30, 32, 46, 33, 29, 17, 21, 32, 41, 28, 13, 15, 16, 27, 17, 34, 41, 20, 44, 31, 13, 32, 32, 40, 29, 31, 43, 32, 48, 22, 29, 25, 23, 45, 20, 38, 21, 35, 26, 38, 33, 13, 44, 31, 39, 32, -35, 31, 35, 26, 27, 29, 20, 44, 14, 41, 16, 33, 13, 25, 20, 15, 35, 33, 42, 33, 45, 13, 19, -33, 29, 15, 23, 30, 34, 17, 41, 39, 31, 42, 42, 40, 38, 19, 47, 34, 12, 43, 29, 30, 48, 12, 47, 19, 30, 24, 15, 32, 20, 22, 42, 36, 21, 43, 36, 32, 48, 19, 21, 26, 44, 18, 48, 24, 21, 41, 34, 29, 12, 43, 26, 15, 38, 17, 24, 43, 36, 33, 17, 21, 17, 45, 44, 14, 17, 43, 17, 17, 18, 32, 42, 24, 23, 31, 35, 39, 29, 30, 15, 39, 30, 48, 31, 20, 41, 38, 12, 14, 24, 40, 43, 47, 37, 38, 40, 22, 48, 22, 26, 40, 35, 46, 44, 27, 31, 29, 38, 24, 16, 31, 36, 44, 18, 14, 32, 20, 24, 22, 35, 31, 31, 34, 27, 14, 17, 17, 38, 35, 37, 24, 35, 48, 48, 18, -35, 25, 33, 28, 30, 20, 13, 42, 30, 13, 33, -43, -34, 40, 37, 17, 46, 18, 45, 23, 16, 41, 42, 39, 18, 28, 27, 25, 36, 46, 17, 24, 47, 45, 14, 45, 23, 33, 46, 12, 33, 38, 15, 41, 42, 22, 14, 34, -18, 16, 38, 24, 39, 26, 45, 37, 27, 17, -18, -37, -19, -32, -23, 16, 12, 31, 12, 47, -48, 46, 37, 16, 44, 43, 44, 30, 21, 14, 40, 15, 13, 41, 40, 35, 29, 16, 26, 46, 17, 37, 18, 35, 21, 45, 25, 42, 21, 27, 30, 12, 29, 30, 43, 34, 46, 43, 37, 20, 36, 17, 37, 15, 35, -36, 28, 37, 39, 32, 17, 39, 34, 40, 30, 33, 26, 33, 28, 29, 47, 43, 39, 20, 42, 31, 22, 41, 35, 22, 24, 22, 38, 43, 19, 21, 44, 21, 25, 37, 19, 16, 44, 29, 24, 31, 13, 44, 45, 14, 32, 22, 17, 28, 48, 16, 36, 15, 28, 14, 18, 39, 40, 24, 40, 37, 17, 18, 47, 24, 17, 41, 19, 43, 33, 43, 15, 28, 32, 42, 22, 41, 15, 29, 45, 45, 44, 29, 43, 26, 38, 29, 21, 22, 31, 45, 24, 33, 14, 38, 24, 16, 22, 36, 47, 42, 31, 24, 20, 38, 28, 38, 37, 45, 38, 21, 39, 24, 42, 13, 47, 32, 26, 20, 33, 32, 26, 41, 18, 42, 31, 31, 43, 35, 36, 23, 41, -48, 20, 33, 19, 48, 24, 44, 26, 43, 34, 42, 20, 32, 39, 46, 16, 20, 15, 25, 36, 35, 18, 37, 36, 43, 33, 19, 32, 17, 34, 12, -35, 16, 24, 16, 13, 41, 44, 15, 19, 45, 34, 39, -45, -21, 47, 33, 24, 44, 43, 23, 37, 13, 31, 25, 22, 32, 13, 20, 48, 36, 33, -47, 24, 4, 19, 2, 14, 2, -15, -3, 52, -27, 39, -8, -25, -21, -15, -31, 8, 41, 32, 8, 7, -25, -28, -30, 17, -11, -29, 43, 19, -7, 3, -12, 28, 55, -15, -39, -25, -19, 23, 0, -4, -9, -15, -18, 56, 8, 1, -17, -28, 3, -3, 0, -20, -7, -2, -12, 60, 34, -5, -10, 7, -8, 48, 57, -27, -10, -7, 39, -15, 1, 12, 23, -10, 19, 17, 3, -14, -6, -7, -12, -6, 6, 38, -20, -9, -16, -22, 0, -16, -20, -22, 38, 2, -22, -8, 32, -25, -33, -8, 8, -23, -18, -12, -15, 1, 46, 0, 15, 35, -33, -39, -28, -3, 5, -1, -2, -29, 41, -33, -13, 45, 54, -30, -15, 63, -13, 26, 45, 22, 7, 5, -8, -34, 46, 23, 61, 15, -10, -17, 15, 41, 24, -6, 31, 34, -6, -14, 28, 21, 16, -21, -21, -23, -27, -6, -12, 48, 54, 16, -15, -2, 11, -10, -13, -38, 3, -16, -13, 27, -5, -34, 6, -32, -37, -37, -19, 5, -1, 45, -32, -12, -26, -1, -20, -19, 37, 35, -20, 0, -23, 38, 3, 44, -16, 4, -28, -22, 36, 57, -13, -3, 38, 55, -32, -36, -43, -7, 17, 20, 16, 6, -26, -29, -37, -33, 11, 16, 21, -23, 0, 48, 50, 18, -3, 42, -11, -9, 13, -13, -12, 13, 35, 5, -20, 40, 53, -25, -28, -30, 44, 22, -14, -6, -17, -8, -16, -43, 10, 13, 30, -13, -4, -24, -21, 15, 26, 53, -33, -14, -30, -6, -15, 15, -23, 32, 23, -12, -26, -27, -41, -36, -16, -34, -30, -36, -10, -33, -42, -33, -38, -22, -24, 34, -33, -42, -31, -15, 30, 13, -37, -39, 35, 27, 4, -28, 54, 1, -6, -29, -2, 15, 13, -24, -11, -18, -20, 19, -24, -21, 51, 54, -24, -30, -18, -45, 39, 17, 50, -32, 23, 12, 55, 0, 52, 21, -7, -23, -16, -50, -40, -26, 25, 32, -6, -8, -8, 26, 31, -31, -20, -10, -19, -19, 26, 3, -4, -40, -48, 46, -1, 56, -27, 15, 49, 22, -36, 16, 33, 26, 11, -31, -47, -30, -35, -42, -47, -26, 4, -9, -10, 13, 34, 17, -30, 7, -21, 36, -18, -22, 4, 25, -24, -1, -22, -30, 18, 7, -45, -33, -11, -21, -43, 20, -38, -17, -21, 28, 24, 31, 38, -17, -22, -12, -35, -19, -37, -25, -16, -17, -41, -54, -12, -41, -41, -28, -56, 9, -38, -44, -45, -44, -14, -3, -5, -19, -28, -28, -32, -36, -26, -5, -29, -28, -36, -43, -53, -37, -46, -8, -1, -26, 25, 37, 45, -32, -18, -15, -33, -28, -44, -15, -1, -33, -33, -16, -12, 22, -16, -40, 13, 10, 16, 42, -7, 18, 17, -27, -39, -20, 22, 38, -48, -34, 44, -40, -20, -38, 26, 24, -25, -27, 18, -40, -24, -30, -45, -35, -16, -32, -40, -14, -41, -19, -47, -47, -41, -49, 27, -17, -30, 31, -46, 28, -52, -28, -41, -39, -14, -49, -43, -34, -12, -13, -10, -31, 41, -41, -12, -44, -29, -17, -41, -45, -36, -47, -23, -28, -17, -17, -42, 37, -37, 6, -38, -18, -33, -25, -19, -13, -48, 14, -18, 37, -11, 31, -22, 43, 36, 24, 26, -27, -37, -25, -44, -35, 44, 41, -39, 13, -36, -43, -18, -43, 8, 17, -17, -29, 40, -27, -41, -31, -25, -17, -38, -17, -14, -49, -43, -48, -40, -49, -19, -37, -32, -37, -34, -32, -21, 10, 0, 2, 7, -5, -14, 10, -6, 19, 24, -16, 1, 1, 13, -8, 12, 8, 40, 28, 17, 21, 34, 5, 24, -2, 3, 17, -18, -13, 39, 27, 50, 6, 37, -22, 6, 9, -21, 24, 31, -16, 16, 34, 5, -25, 4, 1, 10, 38, -20, 15, 37, 37, 35, 9, -31, -33, -13, -58, -47, 16, 22, 10, 15, 8, 4, -56, -21, -33, -57, -54, 8, 0, 10, 3, -4, 3, -67, -68, -56, -48, -60, -16, -84, 10, 6, -23, -81, -57, -79, -62, -17, -80, 18, 14, 17, 12, 12, 15, 13, 24, 0, 29, 29, 27, 19, 24, 46, 48, 33, 12, -26, 12, -4, -5, 7, 52, 16, 37, 13, 12, 19, 16, 31, 33, 29, 43, 13, 25, 5, -27, 29, 5, 8, 5, 16, -67, 25, -8, -15, 16, -60, 14, 2, -44, -31, -31, -22, -14, 2, 17, 1, 2, -49, 7, -29, 8, -4, 17, 33, 4, 2, 1, -2, 4, 6, 3, -20, -32, 0, -3, -34, -20, 19, 24, 0, 25, -15, 20, -30, 19, -28, -19, 39, 39, 7, -27, -20, -8, -10, -1, -3, -4, 7, 16, -12, -36, -4, -39, -12, -5, 5, -18, -22, 25, -14, 23, 8, -34, -11, -9, -1, 16, 14, 0, -13, -20, -5, 34, -8, -46, 27, 18, 11, -5, -18, -12, -11, 1, -16, -24, 22, -8, 4, -9, 0, 13, 40, 47, 38, 16, 36, 49, 19, -3, 4, -10, 3, -3, 2, -10, 43, 24, 40, 41, 18, 25, 10, 7, 0, 17, 4, -1, 18, 13, -14, 7, 0, 45, 36, 34, 41, 17, -15, 40, -9, -5, 36, -4, 16, 43, -8, 9, 20, -8, 15, -16, 10, 16, 2, -5, -10, 13, 12, 13, 41, -20, 2, 39, 7, 4, -15, -17, -10, 18, -15, 21, -11, 0, 27, 20, 22, 21, -13, -6, -18, 4, -24, 22, 0, -26, -1, -8, -7, -23, -27, -18, 1, -25, 6, 10, 6, 3, 30, 5, -7, 2, 0, -19, -14, 10, -17, 34, 15, -9, 13, 15, 0, -19, -7, 1, -17, 12, 0, 54, 41, 16, 30, 20, 1, 11, 7, -4, -4, 41, -13, -2, 12, 18, 13, -13, -3, 17, -6, 10, 0, -10, -4, -7, -10, -23, 0, -1, -9, 6, -6, 1, 7, -27, -20, 1, -35, -34, -6, -17, -28, -19, -8, -18, -12, -22, 2, -13, -25, -22, -18, -25, -9, -13, -13, -23, -12, -6, -24, -25, -5, -20, -25, 20, 30, -3, -34, -25, -4, 35, 19, 6, 12, 43, -28, -8, -24, -11, 0, -21, 41, 20, 21, 2, -1, 7, 17, -2, -10, -16, 0, 2, -9, 29, 6, 5, -17, 13, -22, -9, -17, -27, 0, -25, -10, -1, 21, 12, -26, -7, 3, -14, 0, 43, 30, 18, 24, 12, -23, -20, -3, -8, 9, 2, -6, 19, 32, 10, 34, 13, 8, -13, -13, 3, 3, 37, 25, 44, 24, 32, 51, -5, -4, 13, 1, 1, 18, 19, 38, 53, 32, 47, 53, 24, 41, 18, 48, 17, 13, -11, -3, 19, 32, 55, 48, -6, 30, 46, 28, 46, -13, -2, -13, 30, 23, 28, 32, 51, 51, 54, 22, 18, 6, 41, 35, 14, 24, 17, 13, 31, 37, -15, 13, -4, -13, -2, -2, 12, -15, 4, 41, 33, 26, 40, 19, -13, 9, 49, -8, 4, -13, 37, 47, 31, 24, 18, 36, -15, 21, -17, 11, -2, 2, -15, 5, 37, 45, 19, 19, 35, 0, -11, -14, -6, -21, -4, -33, -5, -23, -32, -8, -15, -12, -32, -20, -38, -28, -16, -9, -35, -13, -19, -2, -28, -6, -16, -30, -23, -26, -29, -9, -29, -37, -15, -33, -14, -27, -14, -23, -6, -35, -13, -25, -8, -9, -35, -5, -7, -9, -16, -15, -36, -27, -10, -35, -3, -28, -34, -15, -33, -1, -22, -34, -4, -8, -20, -21, -15, -26, -30, -10, -13, -18, -22, -27, -11, -37, -32, -24, -39, -23, -8, -21, -30, -14, -27, -5, -33, -10, -7, -20, -29, -21, -34, -32, -36, -34, -15, -3, -1, -5, -19, -6, -8, -17, -15, -37, -16, -15, -35, -35, -25, -2, -22, -28, -38, -32, -19, -36, -35, -7, -3, -35, -30, -28, -29, -14, -30, -11, -16, -8, -9, -17, -3, -32, -7, -29, -4, -7, -16, -28, -22, -24, -7, -24, -38, -29, -7, -39, -20, -25, -15, -26, -14, -15, -3, -31, -14, -27, -21, -30, -38, -11, -38, -39, -10, -34, -23, -31, -14, -33, -15, -26, -8, -12, -26, -7, -10, -30, -15, -17, -14, -30, -7, -4, -26, -39, -17, -36, -10, -33, -31, -29, -29, -9, -24, -8, -17, -37, -23, -8, -39, -28, -4, -12, -32, -5, -5, -38, -22, -20, -37, -23, -4, -38, -18, -6, -15, -33, -34, -12, -37, -18, -16, -33, -19, -3, -22, -39, -5, -17, -5, -21, -22, -5, -9, -4, -24, -32, -37, -23, -5, -19, -16, -7, -40, -24, -31, -27, -26, -39, -16, -19, -6, -29, -28, -6, -28, -8, -13, -12, -4, -38, -24, -32, -16, -38, -24, -21, -29, -40, -51, -40, -17, -39, -10, -19, -23, -16, -14, -22, -36, -14, -19, -7, -34, -4, -38, -24, -18, -12, -38, -11, -35, -9, -29, -15, -7, -19, -16, -37, -14, -29, -36, -24, -6, -9, -4, -39, -21, -15, -5, -38, -15, -33, -24, -38, -10, -33, -20, -26, -25, -18, -37, -39, -16, -9, -35, -27, -20, -36, -22, -13, -48, -15, -16, -15, -13, -17, -29, -39, -44, -35, -6, -20, -26, -30, -37, -17, -15, -18, -27, -23, -14, -38, -4, -20, -30, -5, -11, -34, -9, -12, -28, -33, -22, -6, -9, -27, -19, -13, -7, -17, -38, -34, -6, -28, -9, -5, -27, -4, -10, -25, -13, -6, -29, -22, -23, -34, -37, -6, -24, -6, -21, -39, -23, -25, -24, -37, -5, -40, -33, -7, -6, -25, -31, -27, -24, -7, -7, -12, -16, -38, -4, -21, -15, -31, -28, -17, -14, -31, -10, -27, -4, -18, -20, -7, -39, -33, -25, -25, -16, -34, -18, -23, -20, -33, -33, -22, -27, -26, -35, -10, -34, -4, -39, -39, -19, -31, -19, -27, -11, -8, -17, -18, -32, -26, -9, -13, -24, -25, -4, -32, -12, -39, -27, -24, -36, -25, -34, -18, -10, -14, -31, -24, -16, -26, -13, -12, -7, -32, -34, -20, -8, -35, -7, -36, -13, -22, -20, -5, -36, -34, -35, -31, -3, -32, -15, -14, -31, -31, -7, -17, -31, -26, -10, -28, -17, -10, -32, -22, -32, -33, -13, -22, -19, -20, -17, -5, -31, -17, -4, -34, -4, -32, -27, -4, -5, -23, -17, -35, -29, -5, -11, -28, -6, -21, -13, -24, -8, -14, -24, -27, -29, -36, -29, -5, -37, -27, -13, -18, -11, -12, -12, -28, -9, -19, -20, -9, -27, -17, -15, -39, -10, -25, -10, -34, -18, -5, -40, -33, -36, -15, -26, -21, -20, -20, -17, -26, -40, -23, -31, -46, -16, -27, -17, -10, -17, -32, -47, -31, -42, -45, 16, -24, -42, -14, -13, -7, 14, -47, -35, -39, -38, -16, 14, -14, -13, -14, 12, -15, 4, -45, -21, -14, -45, 18, 25, -24, -19, -28, -2, -18, 30, -17, 34, 35, 36, 37, -39, -14, -37, -43, 14, -26, -19, -34, -11, -27, -17, 43, -42, -43, -20, -40, -41, 0, -34, 15, -45, -22, 14, -30, -44, 27, 17, -39, -26, -44, -17, -47, 18, 12, -23, -26, -33, 47, 40, 23, -26, -25, 15, 25, -27, -19, -6, 19, -15, 12, 41, -31, 12, 43, -31, -14, 14, -34, -15, -21, -12, 7, -18, -13, -28, 44, 43, 17, 38, 15, 34, 38, 17, 37, 35, 42, 47, 42, 21, 43, 21, -3, 26, 13, 13, 24, 35, 24, 31, 35, 8, 11, -26, 24, 42, -33, 35, 23, 21, 38, -27, -23, -43, -38, -32, 32, 2, -1, 21, -13, 7, -22, -25, 37, 40, 17, -3, -19, -8, 12, -31, 14, -21, 20, 25, 22, 32, 38, 15, 25, 12, 25, 16, 1, -10, 21, 44, 33, -47, -24, 30, 24, 38, 32, -31, 16, -6, 18, 16, 18, 45, 17, 15, 29, 22, 20, 31, -12, 34, -19, 16, 21, 26, 39, 22, 26, 32, 12, 37, 37, 3, 28, 16, 13, 16, 2, 27, -36, -29, 19, 18, -32, -12, 36, 22, 33, 22, 19, 36, -30, -14, 42, 16, 46, -42, 47, 21, 30, 39, -14, -47, 34, -14, -40, 43, 12, 17, 12, -46, -15, 29, 25, -31, 20, 30, 13, -43, 14, -27, -28, -13, -41, -22, 14, -19, -38, -46, -41, 47, 5, -12, 30, 22, 21, 30, 13, 9, -3, 15, 21, -21, -48, 6, -38, -2, -4, -26, -22, -13, -34, 33, 1, -17, -26, 28, -12, -17, -37, 23, 16, -42, 7, -47, 30, -33, 39, -39, -32, -17, 44, -20, -24, 5, 30, -35, -20, -14, -29, 5, 1, -40, -40, -21, -15, -18, 22, -35, -39, 44, -43, -28, -16, 31, -43, 16, 14, -16, -27, -22, -23, -25, -23, 47, 24, -14, -29, -47, 12, -31, -15, 0, 15, -43, -40, 23, 16, -27, -32, -33, -21, -27, -39, 10, -11, -23, -9, 14, -16, -33, 36, 42, -41, -23, -48, -44, -17, -38, -39, 20, -21, 41, 7, -41, 21, 38, 34, -35, -36, -29, -12, -17, 11, 9, -26, -36, -27, -17, -28, -48, -40, 13, -16, -21, -42, -17, -11, -41, -33, -28, -38, -23, -21, -23, -18, 35, -10, -24, -39, -43, -16, -47, -23, -16, 38, -39, 41, -25, -31, -42, 19, 10, -12, 22, -29, -32, 14, 46, -17, -20, 25, 37, -16, -44, 48, 30, -14, 29, 38, 34, 23, 17, 19, 17, -28, -24, -35, -36, -27, -23, -12, -21, 21, 8, 3, -14, 18, 8, 47, -12, -2, -26, 40, -16, 11, -11, -39, 19, 32, 18, 34, 26, 42, 33, 21, 7, -26, 48, 47, -2, -8, -31, -4, 32, -22, 26, -18, -9, -28, -40, 5, -17, -24, 5, -18, 1, -47, -13, 31, 47, -4, 17, -32, 0, 28, 44, -40, 19, 33, 25, -30, -28, -12, -41, -22, -35, 7, -36, 14, -34, -25, -14, -32, 38, 45, 24, -16, -18, -20, 2, -25, 41, 34, 36, 34, 28, 17, -13, -24, -19, -24, -16, -12, -14, -20, -14, -19, 16, 36, -6, -12, -40, 43, 20, -23, -17, -9, -11, 30, 46, -28, 43, 44, -41, -42, -12, 39, -14, -21, -22, -8, 46, 23, 31, 16, -36, 34, 41, -20, -29, -19, -34, -26, -21, -22, -31, -26, -35, -34, -42, -26, -11, -37, -10, -21, -15, -17, -26, -8, -26, -40, -21, -17, -32, -37, -38, -26, -38, -45, -35, -36, -9, -29, -18, -32, -45, -27, -13, -11, -12, -17, -39, -29, -1, -8, -28, -14, -21, -11, -19, -15, -30, -29, -9, -33, -33, -12, -5, -26, -39, -19, -23, -8, -38, -43, -40, -26, -13, -36, -18, -40, -41, -33, -12, -26, -24, -32, -24, -19, -30, -9, -31, -40, -28, -44, -34, -18, -35, -15, -32, -44, -22, -39, -36, -35, -35, -27, -31, -21, -24, -34, -11, -16, -16, -7, -40, -26, -21, -29, -27, -25, -19, -36, -27, -45, -16, -20, -12, -38, -35, -38, -5, -13, -9, -15, -24, -34, -43, -24, -40, -14, -43, -33, -35, -19, -19, -25, -29, -38, -9, -17, -29, -24, -24, -33, -16, -13, -28, -27, -45, -14, -21, -16, -13, -11, -13, -2, -19, -42, -23, -41, -19, -15, -35, -16, -36, -36, -38, -45, -36, -39, -28, -42, -45, -20, -34, -21, -13, -38, -35, -22, -44, -43, -29, -46, -33, -33, -10, -25, -42, -39, -32, -33, -18, -18, -9, -25, -41, -18, -35, -27, -37, -34, -2, -24, -26, -37, -15, -31, -29, -23, -46, -15, -12, -30, -32, -44, -22, -44, -21, -15, -23, -31, -10, -21, -24, -18, -10, -13, -40, -9, -10, -10, -20, -45, -29, -28, -36, -33, -21, -45, -29, -34, -25, -6, -43, -42, -36, -31, -17, -15, -17, -16, -40, -41, -23, -20, -14, -12, -38, -32, -19, -18, -30, -29, -41, -22, -26, -13, -43, -33, -21, -31, -27, -18, -46, -14, -20, -13, -11, -23, -10, -35, -13, -40, -20, -16, -24, -10, -18, -24, -20, -25, -12, -5, -40, -31, -33, -11, -13, 2, -23, -13, -12, -29, -31, -25, -37, -33, -12, -27, -21, -36, -39, -12, -43, 0, -45, -34, -43, -12, -21, -11, -24, -13, -13, -34, -19, -35, -12, -19, -32, -44, -16, -15, -30, -40, -28, -26, -11, -30, -13, -22, -33, -44, -35, -6, -43, -41, -30, -41, -24, -44, -11, -28, -42, -32, -30, -29, -28, -19, -42, -18, -22, -10, -28, -27, -35, -39, -38, -23, -24, -40, -44, -16, -40, -13, -36, -20, -12, -14, -45, -20, -40, -33, -4, -23, -43, -39, -28, -30, -37, -10, -22, -30, -18, -17, -42, -20, -28, -37, -10, -28, -26, -16, -15, -20, -13, -36, -18, -10, -23, -26, -35, -32, -8, -26, -41, -31, -13, -29, -9, -11, -34, -26, -27, -33, -10, -8, -33, -25, -33, -29, -14, -15, -15, -32, -38, -36, -31, -13, -30, -18, -33, -16, -8, -8, -11, -11, -37, -42, -39, -8, -7, -43, -44, -44, -16, -21, -30, -13, -38, -43, -27, -44, -6, -43, -33, -27, -34, -34, -18, -27, -19, -19, -12, -39, -40, -27, -25, -44, -14, -32, -11, -41, -18, -31, -9, -26, -26, -11, -32, -23, -16, -14, -28, -10, -32, -15, -13, -25, -10, -10, -26, -30, -4, -20, -30, -46, -36, -20, -38, -44, -32, -17, -41, -14, -28, -7, -10, -30, -36, -35, -26, -13, -18, -26, -25, -35, -41, -45, -38, -25, -30, -16, -23, -22, -46, -16, -34, -25, -11, -33, -35, -30, -15, -44, -41, -33, -39, -45, -14, -37, -18, -36, -13, -32, -30, -27, -35, -25, -33, -44, -24, -26, -40, -29, -29, -28, -20, -16, -14, -31, -16, -32, -16, -35, -20, -13, -14, -41, -29, -44, -21, -39, -26, -21, -18, -14, -21, -17, -20, -13, -17, -15, -33, -31, -39, -34, -26, -27, -22, -18, -17, -34, -10, -7, -34, -15, -4, -39, -21, -24, -27, -17, -10, -37, -15, -30, -5, -29, -31, -9, -12, -24, -37, -31, -36, -14, -33, -26, -15, -33, -18, -33, -19, -27, -12, -13, -18, -14, -7, -33, -10, -5, -34, -31, -21, -14, -23, -9, -16, -13, -34, -10, -24, -20, -6, -14, -30, -19, -16, -34, -7, -27, -9, -31, -32, -9, -23, -35, -16, -27, -36, -13, -4, -35, -35, -11, -32, -24, -6, -7, -8, -9, -38, -29, -10, -34, -28, -23, -35, -32, -15, -32, -21, -5, -22, -14, -20, -19, -32, -32, -24, -30, -30, -27, -27, -9, -25, -14, -10, -22, -22, -20, -7, -19, -27, -38, -22, -31, -19, -12, -16, -33, -25, -20, -31, -33, -4, -13, -36, -32, -23, -11, -40, -11, -29, -22, -21, -36, -23, -4, -37, -13, -41, -28, -38, -25, -12, -19, -28, -28, -38, -14, -15, -33, -26, -37, -28, -32, -39, -31, -7, -21, -47, -22, -11, -31, -25, -16, -38, -40, -29, -14, -12, -18, -15, -26, -32, -39, -40, -8, -39, -28, -25, -33, -29, -6, -26, -34, -11, -7, -28, -20, -34, -36, -19, -15, -27, -39, -38, -19, -35, -30, -6, -28, -29, -9, -17, -37, -23, -9, -34, -16, -22, -33, -19, -27, -13, -7, -34, -17, -27, -8, -39, -7, -24, -5, -10, -7, -33, -10, -27, -21, -36, -9, -18, -32, -47, -11, -34, -22, -22, -30, -28, -32, -13, -7, -36, -21, -12, -11, -51, -18, -19, -26, -24, -37, -43, -19, -51, -20, -52, -28, -38, -9, -24, -20, -11, -38, -29, -39, -38, -27, -47, -27, -8, -28, -7, -6, -18, -11, -7, -10, -29, -16, -46, -5, -32, -20, -18, -37, -22, -28, -24, -25, -22, -19, -18, -41, -8, -32, -28, -21, -4, -39, -3, -30, -16, -12, -18, -31, -17, -13, -27, -38, -28, -25, -35, -36, -38, -20, -20, -44, -42, -28, -34, -16, -31, -21, -24, -29, -33, -12, -7, -11, -28, -23, -13, -29, -32, -33, -7, -23, -30, -15, -24, -31, -19, -28, -30, -37, -26, -34, -19, -16, -17, -38, -39, -23, -16, -15, -16, -7, -6, -28, -19, -10, -17, -37, -21, -27, -14, -17, -40, -12, -30, -14, -21, -34, -7, -39, -47, -19, -26, -10, -24, -13, -28, -28, -10, -27, -9, -11, -10, -17, -24, -20, -27, -5, -8, -19, -22, -12, -9, -22, -24, -46, -46, -28, -22, -14, -27, -36, -13, -32, -33, -25, -32, -11, -23, -33, -30, -18, -17, -13, -34, -7, -14, -9, -30, -26, -26, -39, -33, -37, -25, -7, -11, -31, -35, -37, -7, -19, -36, -33, -12, -19, -36, -6, -36, -32, -21, -31, -26, -38, -13, -14, -27, -14, -20, -31, -35, -6, -20, -36, -40, -17, -25, -37, -18, -27, -25, -33, -39, -30, -28, -40, -5, -14, -20, -24, -4, -13, -8, -8, -22, -36, -26, -6, -6, -11, -22, -9, -34, -17, -30, -32, -18, -37, -21, -9, -30, -19, -27, -10, -40, -27, -19, -15, -22, -22, -43, -12, -29, -15, -9, -40, -33, -40, -39, -8, -35, -16, -18, -19, -11, -36, -7, -27, -19, -8, -15, -39, -34, -35, -10, -24, -14, -6, -25, -17, -34, -33, -33, -12, -21, -39, -35, -43, -27, -23, -39, -13, -17, -49, -39, -24, -17, -5, -25, -22, -33, -27, -26, -14, -28, -24, -32, -14, -13, 10, -15, -37, -27, -12, -1, -24, -2, -36, -37, -29, -28, -21, -11, -37, -25, -34, -25, -33, -2, -11, -18, -15, -1, -23, -34, 5, 9, -16, -24, -10, -28, -9, -35, -26, -12, -24, -18, -24, -25, -37, -40, -11, -15, -24, -30, -26, -39, -21, -28, -25, -28, -33, -17, -34, -43, -25, -16, 11, -3, -24, -33, -14, -9, -43, -34, -43, -4, -15, -29, -20, -4, -29, -18, -47, -28, -20, -23, -10, -12, -23, -17, -35, -26, -24, -5, -24, -1, -27, -19, -3, -35, -42, -21, -12, -21, -34, -36, -32, -32, -1, -12, -33, -13, -42, -35, -46, -34, -6, -36, -24, -27, -21, -31, -46, -37, -3, -28, -35, -15, -19, -17, -14, -36, -43, -31, -43, -24, -30, -35, -43, -29, -41, -21, -19, -20, -35, -35, -29, -15, -22, -17, -24, -27, -34, -35, -13, -29, -27, -31, -42, -26, -16, -27, -17, -5, -23, -9, -23, -4, -36, -27, -10, -31, -15, -14, -37, -3, -36, -35, -48, -18, -45, -4, -20, -20, -4, -11, -29, -39, -25, -33, -35, -37, -24, -34, -19, -28, -46, -22, -21, -33, -17, -30, -27, -9, -8, -8, -23, -15, -21, -8, -10, -24, -47, -48, -17, -22, -30, -32, -25, -4, -14, -14, -42, -32, -10, -10, -46, -15, -36, -30, -10, -20, -20, -4, -24, -1, -35, -22, -2, -15, -14, -30, -1, -18, -14, -16, -25, -13, -31, -2, -32, -7, -39, -15, -8, -31, -21, -2, -22, -24, -24, -21, -37, -17, -36, -9, -3, -2, -35, -47, -14, -32, -34, -30, -3, -34, -18, -19, -26, -35, -9, -42, -26, -36, -8, -15, -47, -42, -17, -37, -17, -18, -28, -34, 0, -17, -15, -33, 3, -23, -1, -34, -29, -23, -46, -38, -31, -18, 0, -24, -21, -18, -20, -2, -25, 5, -33, -29, -27, -10, -30, -29, -22, -35, -30, -44, -28, -1, -20, -2, -10, -28, -2, -35, -7, -20, -21, -9, -31, -28, -38, -25, -31, -18, -13, -14, -35, -18, -41, -34, -29, -1, -43, -16, -33, -21, -33, -25, -29, -23, -36, -34, -25, -34, -6, -17, -29, -41, -28, -26, -13, -22, -46, -18, -8, -23, -45, 0, -2, -10, -28, -14, -25, -15, -35, -46, -36, -31, -33, -19, -23, -37, -35, -43, -29, -3, -15, -19, -2, -33, -21, -18, -42, -13, -23, -20, -20, -38, -38, -6, -28, -15, -12, -29, -29, -24, -35, -18, -28, -17, -4, -28, 4, -26, -14, -18, -35, 5, -6, -13, 5, -35, -28, -15, -12, -31, -20, -27, -19, -18, -8, -18, -36, -37, 0, -22, -25, -30, -43, -30, 3, -9, -20, -2, -1, -41, -13, -10, -23, -31, -19, 1, -27, -12, -24, -3, -30, -15, -31, -16, -29, -18, -31, -41, -32, -41, -13, -43, -31, -35, -16, -7, 12, -5, -28, -8, -13, -28, -25, -28, -13, -9, -20, 3, 0, -42, -27, -7, -37, -12, -32, -28, -32, -19, 2, 10, -27, 5, -31, 14, -2, 1, -31, -12, -5, -21, -14, -6, 33, 20, 10, -11, -10, -9, 11, 0, -28, -11, 22, 21, -37, -36, -20, -44, -21, 7, -12, -2, -23, -23, -21, -18, -12, 2, -11, -23, -24, -22, -16, 0, -6, -34, -11, -33, -28, -43, -40, -8, -29, -14, 8, -14, -35, -16, -9, -4, 1, -1, -9, -22, 25, 6, 4, 0, 0, -38, -11, -18, -17, -26, -7, -20, -27, -13, -26, 4, 1, -21, -14, -14, -29, -37, -3, -18, -16}
}
;

#undef INPUT_SAMPLES
#undef FC_UNITS